<?xml version="1.0"?>
<opencv_storage>
<opencv_ml_svm>
  <format>3</format>
  <svmType>C_SVC</svmType>
  <kernel>
    <type>LINEAR</type></kernel>
  <C>1.0000000000000001e-01</C>
  <term_criteria><iterations>10000000</iterations></term_criteria>
  <var_count>400</var_count>
  <class_count>10</class_count>
  <class_labels type_id="opencv-matrix">
    <rows>10</rows>
    <cols>1</cols>
    <dt>i</dt>
    <data>
      0 1 2 3 4 5 6 7 8 9</data></class_labels>
  <sv_total>45</sv_total>
  <support_vectors>
    <_>
      0. 0. 0. 0. 0. 0. 0. 0. 0. 0. 0. 0. 0. 0. 0. 0. 0. 0. 0. 0. 0. 0.
      0. 0. 0. 0. 0. 0. 0. 0. 0. 0. 0. 0. 0. 0. 0. 0. 0. 0. 0. 0. 0. 0.
      0. 0. 0. 0. 0. 0. 0. 1.78760888e-06 1.85649708e-06 2.54118595e-06
      4.37320432e-06 1.61625928e-06 6.22444460e-08 0. 0. 0. 0. 0. 0. 0.
      0. 0. 0. 2.78509356e-06 4.72268075e-05 1.10664361e-04
      1.66552127e-04 1.96831097e-04 1.56251190e-04 1.04319610e-04
      8.66005357e-05 6.38866477e-05 5.12256083e-05 8.12976796e-05 0. 0.
      0. 0. 0. 0. 0. -4.89231061e-05 -1.08501139e-04 -1.09315537e-04
      4.60801639e-05 1.92678533e-04 4.23601101e-04 4.36776812e-04
      3.16930149e-04 2.89062329e-04 8.92832395e-05 4.15036811e-05
      1.85096753e-04 1.78381320e-04 0. 0. 0. 0. 0. -6.26874225e-06
      -4.67335440e-06 -1.41654469e-04 -2.60402710e-04 -7.11487010e-05
      -1.61078060e-04 -3.25100809e-05 4.08022635e-04 3.86674103e-04
      4.01441037e-04 5.09004225e-04 3.61024431e-04 -4.32111883e-05
      -4.61215495e-05 1.48582156e-04 0. 0. 0. 0. 0. -2.28361332e-05
      -2.82581914e-05 9.72403905e-06 4.82530377e-05 2.16557411e-04
      -1.28444255e-04 8.19767301e-05 9.55312717e-05 4.08998312e-04
      1.86889025e-04 5.55974184e-05 -1.26152605e-04 -2.12737752e-04
      -1.30203161e-05 1.22779704e-04 0. 0. 0. 0. -1.79106917e-06
      -4.02990590e-05 4.38132411e-05 2.22242117e-04 2.02052339e-04
      9.25816676e-06 -4.72714863e-04 2.98045052e-04 8.82598746e-04
      9.07562731e-04 7.64622062e-04 2.68002506e-04 1.27233958e-04
      3.89507826e-04 3.91460810e-04 1.96504596e-04 0. 0. 0. 0.
      -1.77965740e-05 -4.60516130e-05 1.91501196e-04 8.69922733e-05
      -1.84666074e-04 -2.51289777e-04 1.32947185e-04 5.84561785e-04
      3.72839946e-04 1.82408025e-04 2.46562326e-04 2.64643197e-04
      3.06272414e-04 3.67830158e-04 3.96096293e-04 1.31207562e-04 0. 0.
      0. 0. -5.76841776e-05 1.35466471e-04 1.97357804e-04
      -2.31995054e-05 -2.84154987e-04 2.07886289e-04 1.59454168e-04
      -3.20218242e-04 -5.27048367e-04 -9.06256493e-04 -5.70684788e-04
      -8.60650558e-04 -4.60306270e-04 1.82294243e-04 6.72283291e-04
      2.31765662e-04 0. 0. 0. 0. -1.55890128e-04 6.35012402e-04
      3.13761120e-04 5.11278886e-05 2.13226900e-04 3.52258212e-05
      -2.86334427e-04 -1.05843344e-03 -1.35051704e-03 -1.05584203e-03
      -2.20111586e-04 -3.57322861e-04 -5.22083719e-04 1.46875012e-04
      5.61154739e-04 2.87579838e-04 0. 0. 0. 0. -2.64991308e-04
      1.64818906e-04 1.19307981e-04 -2.00299401e-04 -3.09341449e-05
      -2.47746211e-04 -4.83750453e-04 -5.78611391e-04 -3.42302636e-04
      -4.18240888e-05 2.84209207e-04 5.23259572e-04 3.51656723e-04
      1.91828382e-04 1.52592893e-05 1.14338887e-04 0. 0. 0. 0.
      -7.80237824e-05 -7.03849946e-05 2.82915949e-04 2.27813056e-04
      1.31635286e-04 -1.00071164e-04 -6.86114145e-05 -8.71258890e-05
      2.68831238e-04 3.42321873e-04 6.95141498e-04 5.06283308e-04
      -9.04337940e-05 -2.48575612e-04 -2.42093491e-04 -1.52034016e-04 0.
      0. 0. 0. 1.15259500e-04 -7.21696342e-05 -3.48669273e-04
      -2.08615806e-04 3.21132611e-05 2.91279102e-05 2.78062682e-04
      7.45547586e-05 1.41092547e-04 2.94745945e-07 3.07781767e-04
      1.03809027e-04 -3.33016331e-04 -1.41988421e-04 1.32202709e-04
      4.74137851e-05 0. 0. 0. 0. 2.33921801e-05 2.73324304e-06
      -8.34753664e-05 -2.12692990e-04 4.99444104e-05 4.53190325e-04
      6.20199426e-04 5.87560411e-04 4.86631558e-04 4.30059066e-04
      3.67437053e-04 -9.06159767e-05 -2.73377285e-04 -6.14193486e-05
      1.13221889e-04 6.75881938e-06 0. 0. 0. 0. 0. 3.81799255e-05
      1.28522233e-05 -7.39243551e-05 3.15585174e-04 4.55853122e-04
      2.98733241e-04 2.72604608e-04 1.84974095e-04 3.35145975e-04
      5.17314475e-04 2.15079664e-04 -1.34874834e-04 -1.41940589e-04
      -3.29943869e-05 0. 0. 0. 0. 0. 0. 0. -3.33164971e-05
      2.79579108e-05 2.14036263e-04 4.26592713e-04 3.56656645e-04
      3.02662986e-04 3.46460671e-04 4.47906408e-04 3.83423117e-04
      9.24714259e-05 -3.16747988e-04 -2.86059891e-04 -6.37027551e-05 0.
      0. 0. 0. 0. 0. 0. 0. 0. 1.23449236e-05 8.49601493e-05
      2.49149103e-04 3.47702706e-04 3.25166446e-04 2.31743281e-04
      9.34777709e-05 -4.96665816e-05 -3.05057707e-04 -3.11663462e-04
      -6.62508683e-05 0. 0. 0. 0. 0. 0. 0. 0. 0. 0. -7.23187259e-05
      -6.29872739e-05 -1.39406222e-06 -1.95168705e-05 -3.48515550e-06 0.
      -6.71650980e-07 -4.10467510e-05 -1.58654497e-04 -3.69476002e-05 0.
      0. 0. 0. 0. 0. 0. 0. 0. 0. 0. 0. 0. -3.48515550e-06
      -6.97031112e-07 0. 0. 0. 0. 0. 0. 0. 0.</_>
    <_>
      0. 0. 0. 0. 0. 0. 0. 0. 0. 0. 0. 0. 0. 0. 0. 0. 0. 0. 0. 0. 0. 0.
      0. 0. -5.48610387e-06 -4.93749358e-05 -9.75307375e-06 0. 0.
      7.49259380e-06 7.49259414e-07 0. 0. 0. 0. 0. 0. 0. 0. 0. 0. 0. 0.
      0. -2.13348485e-05 -1.62462733e-04 -1.64968675e-04 -6.43928361e-05
      -5.40668543e-06 2.24777818e-06 6.69966255e-07 -3.68604087e-04
      -6.60614576e-04 -7.27734528e-04 -2.19938956e-04 6.66030701e-07
      -8.80752850e-05 -4.84047450e-05 0. 0. 0. 0. 0. -6.60260071e-07
      -4.70261402e-05 -3.64748004e-04 -4.47682221e-04 -3.03426583e-04
      2.40476380e-04 5.20649657e-04 4.47487721e-04 -2.28101926e-04
      -1.35874143e-04 -7.39287178e-04 -4.20942175e-04 1.59772724e-04
      -1.69171006e-04 2.04908320e-05 0. 0. 0. 0. 0. -6.22530933e-06
      -1.15168921e-04 -4.50044841e-04 -3.35823453e-04 1.11161666e-04
      1.57106156e-03 1.72228739e-03 7.88699661e-04 1.51093322e-04
      -7.58725218e-04 -2.08129451e-04 -5.79424726e-04 -3.65963264e-04
      1.94847657e-04 1.48173654e-04 0. 0. 0. 0. -1.00850630e-04
      -9.88804386e-05 -3.11624957e-04 -7.05227139e-04 -5.28448320e-04
      3.53498472e-04 1.87887077e-03 1.65919645e-03 -1.70800646e-04
      1.75319175e-04 5.51048026e-04 1.48483063e-03 8.33670085e-04
      -1.46736216e-04 -1.57345133e-03 -1.78139497e-04 0. 0. 0.
      -1.51275948e-04 -6.90223416e-04 -8.22525239e-04 -4.37189505e-04
      -7.80158327e-04 -6.59562938e-04 2.42152979e-04 7.59597751e-04
      1.24705490e-03 3.79806734e-04 8.92567696e-05 -1.92952357e-04
      -6.65199696e-05 -1.27191818e-03 -1.18366312e-04 -9.41399427e-04
      -3.91039968e-04 0. 0. 0. -1.98339578e-04 -8.68092058e-04
      2.45219009e-04 8.31478625e-04 -2.73589569e-04 -2.10996834e-04
      -2.42921757e-04 2.06939920e-04 1.83352199e-03 1.91080198e-03
      3.20016930e-04 -7.87417695e-04 -4.56622511e-04 5.78782172e-04
      2.45162897e-04 5.10029262e-04 -2.48751196e-04 0. 0. 0.
      -3.01134332e-05 -1.05042593e-03 -3.74086463e-04 -4.39948402e-04
      7.22752011e-04 -3.86771717e-04 2.70310178e-04 9.20653867e-04
      1.06741313e-03 -8.13501247e-05 3.33587115e-04 9.66461201e-04
      1.84599101e-03 2.88968324e-04 -2.66001967e-04 1.81462721e-03
      7.63109885e-04 0. 0. 0. -1.12925372e-04 -1.68283426e-04
      -1.10879552e-03 -9.08081653e-04 -4.90479579e-05 7.46789272e-04
      1.52597879e-03 -4.74255066e-04 -1.40379008e-03 -8.04466370e-04
      -2.67888419e-03 -1.90844352e-03 -1.88782113e-03 -1.83236261e-04
      -2.24121584e-04 2.76483921e-03 1.06962142e-03 0. 0. 0.
      -1.25472638e-04 1.01223675e-04 -2.97146962e-05 5.24324023e-05
      1.21321075e-03 8.37837288e-04 -4.81308496e-04 -2.28390636e-04
      -8.15508713e-04 -3.87481228e-03 -3.48621141e-03 -6.53582916e-04
      -1.63166178e-03 -1.10202667e-03 1.58342242e-03 2.14374531e-03
      4.19532502e-04 0. 0. 0. -1.25472634e-05 -7.44139516e-06
      -1.48597371e-03 3.22935841e-04 -1.64134020e-04 -1.22220290e-03
      -2.17260735e-04 1.52026385e-03 3.62605388e-05 -6.50556118e-04
      8.66569404e-04 -3.13183235e-04 -8.59826629e-04 2.19631620e-04
      3.17051628e-04 -7.92890205e-04 6.77024436e-05 0. 0. 0. 0.
      1.26861187e-03 -1.71726930e-03 -4.17976582e-04 5.77987928e-04
      -1.59471156e-03 9.63814324e-04 2.29131617e-03 -2.76968494e-04
      6.74204901e-04 -6.37125704e-05 -2.18121262e-04 -1.00813981e-03
      -5.50815857e-05 -2.50350009e-03 -2.42202310e-03 -1.37398299e-03
      -1.66605692e-04 0. 0. 0. 9.71439120e-04 7.74145708e-04
      -3.30932206e-04 1.02822809e-03 6.00783096e-04 2.72576726e-04
      1.66764017e-03 1.40444638e-04 2.80698645e-04 -1.37006154e-03
      -8.07858654e-04 -2.04231808e-04 -1.43408030e-03 -9.23275307e-04
      -1.89543862e-04 -1.67960988e-03 -9.09923401e-04 0. 0. 0.
      -8.68997129e-04 6.67344255e-04 1.30651635e-03 -1.56526032e-04
      -7.63270829e-04 -2.67213472e-04 6.31488801e-04 2.45773146e-04
      4.75777022e-04 8.01104587e-04 -5.51104131e-05 1.24148547e-03
      -1.32056396e-03 8.34734412e-04 7.06612424e-04 -8.33713566e-04
      -5.63896203e-04 0. 0. 0. -5.98831451e-04 -2.81423359e-04
      -1.27460866e-04 -1.08592643e-03 5.46868599e-04 8.33684462e-04
      6.35334174e-04 1.15648611e-03 1.46375841e-03 7.82607065e-04
      1.70382729e-04 1.87903905e-04 -1.12792663e-03 8.36699910e-04
      8.56137776e-05 -1.78317787e-05 0. 0. 0. 0. 7.01290410e-05
      5.08317782e-04 5.09649108e-04 3.40801431e-04 5.43215021e-04
      1.53821288e-03 1.47366303e-03 6.85230305e-04 9.64835752e-04
      8.52031517e-04 -9.80426994e-05 -3.69177607e-04 1.28581189e-04
      -1.35147318e-04 -3.92356596e-05 -2.38121211e-05 0. 0. 0. 0.
      4.74402332e-05 4.11997666e-04 4.36181290e-04 4.28498781e-04
      2.37809043e-04 1.35372902e-04 2.05737611e-04 4.71203908e-04
      6.97195355e-04 -2.37190252e-04 -6.91204739e-04 -8.82718305e-05
      8.63515161e-05 -1.75661698e-05 -2.07510311e-06 -1.88645731e-06 0.
      0. 0. 0. 0. 0. 0. 0. 0. -3.19352803e-05 -3.44675616e-04
      -4.20364668e-04 -2.27491997e-04 -9.31771065e-04 -7.33340567e-04
      -1.11561814e-04 0. -4.79042274e-06 -8.86228227e-05 -2.15569016e-05
      0. 0. 0. 0. 0. 0. 0. 0. 0. 0. -3.15973120e-05 -4.03743397e-05
      -4.15081522e-05 -8.32646838e-05 -3.96498490e-06 0. 0.
      -2.39521137e-06 -4.55090158e-05 -1.19760571e-05 0. 0.</_>
    <_>
      0. 0. 0. 0. 0. 0. 0. 0. 0. 0. 0. 0. 0. 0. 0. 0. 0. 0. 0. 0. 0. 0.
      0. 0. 0. 0. 0. 0. 0. 0. 0. -4.81898896e-05 -8.59518768e-05
      -7.57713224e-06 0. 0. 0. 0. 0. 0. 0. 0. 0. 0. 0. -2.13552248e-05
      -2.82702495e-05 -1.01691546e-06 0. 0. 0. -1.28767759e-04
      -3.61908082e-04 -4.64548444e-04 -3.85515101e-04 -1.90899264e-05
      -5.61739907e-05 -1.13109592e-04 -1.25617817e-05 0. 0. 0. 0. 0.
      -7.51307452e-05 -4.83437288e-05 -1.04185150e-04 1.52325720e-05
      1.42055505e-04 1.79168695e-04 3.13963130e-04 3.43204127e-04
      -1.02525803e-04 -3.02275701e-04 -2.74920516e-04 1.92960666e-04
      -1.37782699e-04 -2.21901340e-04 -9.21197352e-05 0. 0. 0. 0.
      -8.43364323e-05 -4.95270826e-04 -4.79033130e-04 -3.55603028e-04
      2.03582953e-04 7.20283948e-04 6.84149447e-04 8.15576699e-04
      1.43578998e-03 6.55498647e-04 -2.54805171e-04 -1.09641149e-03
      -1.71235268e-04 2.66168179e-04 7.05396160e-05 -1.00210076e-04 0.
      0. 0. 0. -2.90228461e-04 -9.52919188e-04 -8.07872450e-04
      -5.39237866e-04 2.62947840e-04 7.05213577e-04 4.24295838e-04
      8.27574928e-04 1.75806088e-03 6.02367334e-04 3.88903049e-04
      3.12803430e-04 1.25751016e-04 -5.31245198e-04 -4.62940923e-04
      -2.20757924e-04 0. 0. 0. 1.83208831e-05 -3.18214792e-04
      -8.65739363e-04 -7.75925058e-04 -2.41646820e-04 1.76805770e-04
      4.13607515e-04 2.93426536e-04 6.35771430e-05 1.48196134e-03
      -4.78579095e-05 7.49872357e-04 2.19051988e-04 -4.49151470e-04
      1.72876229e-04 -5.17100038e-04 -2.91770819e-04 0. 0. 0.
      1.59535557e-05 -4.27320600e-04 -1.01061643e-03 -2.19368972e-04
      1.13650800e-04 3.78671190e-04 -2.98434985e-04 -6.16944861e-04
      1.22802577e-03 1.62665150e-03 1.24733848e-03 7.54216046e-04
      5.20277594e-04 6.47485838e-04 6.55521930e-04 -6.76418946e-04
      -4.29313659e-04 -6.44643223e-05 0. 0. -2.99375970e-04
      -1.15175836e-03 -8.04689655e-04 3.96923308e-04 -4.93262312e-04
      9.03221644e-06 3.41630257e-05 -7.91213024e-05 1.06297142e-03
      8.51141231e-04 9.98657662e-04 1.73767225e-03 1.17406796e-03
      7.06758467e-04 1.00975833e-03 -2.77377985e-04 -5.76887513e-04
      -1.32413203e-04 0. 0. -7.53073022e-04 -1.40742003e-03
      -5.20939182e-04 -1.03008751e-04 -4.79517563e-04 4.65839403e-04
      -3.97008465e-04 -5.81677072e-04 -1.22982121e-04 -1.70218677e-03
      -8.25590338e-04 -3.39602906e-04 -1.51177577e-04 3.17532999e-06
      1.42703124e-03 5.34298888e-04 -4.80441406e-04 -1.27186373e-04 0.
      0. -5.99975232e-04 4.90606995e-04 6.19203856e-05 9.75699586e-05
      6.34715310e-04 -3.69648697e-05 -3.53605254e-04 -2.16685934e-03
      -2.82557122e-03 -2.32799351e-03 -7.07538638e-05 -1.82134041e-04
      -6.63223385e-04 -2.39896006e-04 8.07904813e-04 3.56351375e-04
      -3.25651403e-04 -1.20217250e-04 0. 0. -6.23847707e-04
      1.86028250e-04 -4.00532066e-04 1.71972715e-05 2.71942899e-05
      -3.74893716e-04 -4.55219764e-04 -1.11558486e-03 -6.23249158e-04
      2.71939702e-04 2.45266536e-04 -2.93996738e-04 -1.25759514e-04
      3.45059787e-04 1.27200299e-04 7.41863041e-05 -2.06465658e-04
      -3.13610217e-05 0. 0. -4.95098298e-04 -3.07799841e-04
      -5.00880560e-05 1.73078224e-04 -1.55551315e-04 1.54388079e-04
      -1.09664991e-03 -1.18792662e-03 2.37081418e-04 3.59733690e-06
      -3.51047755e-04 -2.81012180e-04 -9.57844532e-05 -4.45467158e-04
      -1.23882739e-04 5.58347747e-05 -1.74227898e-06 0. 0. 0.
      -2.83175817e-04 -1.00858117e-04 -7.84040778e-04 -2.44343042e-04
      3.84798885e-04 4.76540408e-05 -2.25818658e-05 -8.30171339e-04
      -5.39100547e-05 -3.27124493e-04 -2.49706092e-04 -6.03199587e-04
      -2.60539557e-04 -5.45044546e-04 1.14118709e-04 7.65490840e-05 0.
      0. 0. 0. -1.92359730e-05 6.89886510e-04 4.76637535e-04
      2.13416773e-04 -1.13310620e-04 3.56650999e-05 5.29585755e-04
      7.02721067e-04 4.82374366e-04 1.84504199e-04 -2.49085482e-04
      -8.54563492e-04 -4.82860632e-04 -1.24537793e-04 -1.20972851e-04
      1.33468448e-05 0. 0. 0. 0. 3.43503416e-05 4.69286373e-04
      3.94714647e-04 1.97304573e-04 3.04625777e-04 6.73810253e-04
      6.96098607e-04 4.87748301e-04 6.64057807e-05 4.42008110e-04
      7.29168009e-04 2.09569946e-04 -3.90934496e-04 -4.61047108e-04
      -2.30138787e-04 6.16107136e-05 0. 0. 0. 0. 2.62144226e-06
      -9.99680742e-06 -4.15835384e-04 -4.74816450e-04 3.02186992e-04
      8.98436061e-04 8.51108227e-04 5.71317505e-04 2.78795400e-04
      1.72538625e-04 2.27181823e-04 -1.49521933e-04 -6.11154130e-04
      -3.79284524e-04 2.65089238e-05 1.20264558e-05 0. 0. 0. 0.
      1.77332856e-06 1.42928002e-05 -2.75961120e-05 -6.39630671e-05
      1.57054437e-05 8.27792683e-05 2.53971521e-04 3.46739776e-04
      2.00930634e-04 -1.59084084e-04 -2.04722310e-04 -2.71307072e-04
      -2.59444263e-04 4.08753549e-05 8.59032571e-06 0. 0. 0. 0. 0. 0. 0.
      0. 0. 0. 0. 0. 0. 0. 0. 0. 0. 0. 0. 0. 0. 0. 0. 0. 0. 0. 0. 0. 0.
      0. 0. 0. 0. 0. 0. 0. 0. 0. 0. 0. 0. 0. 0.</_>
    <_>
      0. 0. 0. 0. 0. 0. 0. 0. 0. 0. 0. 0. 0. 0. 0. 0. 0. 0. 0. 0. 0. 0.
      0. 0. 0. 0. 0. 0. 0. 0. 0. 0. 0. 0. 0. 0. 0. 0. 0. 0. 0. 0.
      -1.01801831e-07 -8.14414648e-07 -2.95225300e-06 -2.79256051e-06
      -8.13814222e-06 -8.86722228e-06 -1.76649573e-05 -2.27050277e-05
      -1.79967483e-05 -5.62398384e-07 -1.64665817e-05 4.72271968e-05
      7.53382265e-05 7.84741351e-05 2.56912026e-05 0. 0. 0. 0. 0. 0.
      -8.55135386e-06 -2.39234305e-05 -2.42862116e-05 -7.22710902e-05
      -2.35133866e-05 -6.10497445e-05 5.20675712e-05 5.41958470e-05
      -4.16679250e-05 -1.14576033e-04 1.33527385e-04 4.47614060e-04
      2.85418850e-04 1.41283657e-04 6.48806963e-06 0. 0. 0. 0. 0.
      -5.90450600e-06 -2.30072128e-05 -4.56673733e-05 -1.43682613e-04
      -3.91552057e-05 2.65229581e-04 1.44979800e-04 1.66245110e-04
      2.45066563e-04 -1.91738000e-04 -3.28583672e-04 4.07004205e-04
      4.93416213e-04 2.52973696e-04 -1.38644784e-04 0. 0. 0. 0. 0.
      5.75434433e-06 -4.38875395e-05 -2.22431350e-04 -2.56286206e-04
      1.71625434e-04 1.22856072e-04 -2.57021165e-04 3.21933039e-04
      5.60584653e-04 -2.05612378e-05 2.56710278e-04 6.77156495e-04
      8.20395944e-04 5.76196035e-05 -2.49871315e-04 -4.67782447e-05
      -6.53887628e-06 0. 0. -4.28717067e-06 -7.69573453e-05
      -2.11408493e-04 -2.77815911e-04 -8.85488116e-05 9.17357320e-05
      -4.18879994e-04 -2.85102840e-04 -4.50033287e-04 -4.36748378e-04
      -4.37040813e-04 -2.68942851e-04 6.72537542e-04 6.60806138e-04
      2.17714653e-04 -2.94130965e-04 -1.02704755e-04 -1.48941072e-05 0.
      0. -3.45964727e-05 -3.43484484e-04 -2.89525226e-04 -6.61016602e-05
      1.06425287e-04 -9.26065768e-05 -3.20942308e-05 -2.94320962e-05
      1.53720088e-04 -2.68468884e-05 9.37896548e-05 -6.07669754e-05
      1.12765061e-03 8.48244526e-04 4.77714464e-04 -2.67062424e-04
      -7.50140885e-07 0. 0. 0. -2.59594071e-05 -2.46076175e-04
      7.45673788e-06 1.66474478e-04 4.95056047e-05 3.42186104e-04
      4.13669797e-04 -1.38398507e-04 -2.43362665e-04 -9.11886127e-06
      -2.72967096e-04 4.97575566e-05 1.14642340e-03 1.19350443e-03
      6.09947834e-04 6.40391299e-05 3.09674033e-05 0. 0. 0.
      2.45207793e-05 3.19132232e-04 5.48084965e-04 7.27462320e-05
      9.28816589e-05 5.37363463e-04 4.50118561e-04 -4.97716828e-04
      -5.58247557e-04 -7.67983729e-04 -1.02026016e-03 -3.60098173e-04
      5.56463783e-04 7.86680786e-04 6.76272612e-04 7.63297721e-05
      2.64721366e-05 0. 0. 0. 4.83539698e-05 8.64922942e-04
      6.86335086e-04 1.60016396e-04 9.60175123e-04 1.21047453e-03
      2.60247412e-04 -7.21145247e-04 -1.23577483e-03 -1.23584864e-03
      -9.64622537e-04 -5.34386316e-04 -3.94281669e-04 6.47852197e-04
      4.27824794e-04 1.07942113e-04 -1.29806349e-05 0. 0. 0.
      9.39664315e-05 4.90740349e-04 4.15105809e-04 1.04393794e-05
      2.54358543e-04 6.02942717e-04 -4.15367598e-04 -8.70678981e-04
      -1.04584056e-03 -4.50931897e-04 -6.71184564e-04 -4.60758893e-04
      -3.26704961e-04 4.60343639e-04 9.08722286e-05 8.63073819e-06
      -3.32015115e-05 0. 0. 0. 3.59349506e-04 1.20396217e-04
      2.89290474e-04 3.71638162e-04 4.57028480e-04 8.48495285e-04
      -3.14611185e-04 -8.01786548e-04 -6.89836917e-04 -2.61348527e-04
      -4.07889922e-04 1.84531964e-04 1.32741625e-04 -2.88243114e-04
      -1.83314711e-04 1.98141806e-05 -4.24380232e-06 0. 0. 0.
      6.81322490e-05 1.92525840e-04 1.52889595e-04 -2.04754120e-04
      4.50123829e-04 9.27725458e-04 1.36208444e-04 -8.25411524e-04
      -4.71596926e-04 -1.31355249e-04 -5.04529860e-04 -4.91452112e-04
      -5.10058075e-04 -5.15258289e-04 -2.56133608e-05 8.53400707e-05 0.
      0. 0. 0. 2.26358243e-05 6.92536123e-05 -7.93294676e-05
      -3.45577660e-04 -3.65310145e-04 2.38860972e-04 3.11638607e-04
      2.55460091e-05 1.74670320e-04 3.71738948e-04 -5.45992632e-04
      -1.58033959e-04 -2.64139904e-04 -3.43401771e-04 -4.17027302e-04
      -7.78776594e-05 0. 0. 0. 0. -2.37954482e-05 -1.76287780e-04
      -4.93422740e-05 -1.41853670e-04 -1.29823457e-04 3.83007631e-04
      4.36815113e-04 5.65302849e-04 4.75430483e-04 3.31744610e-04
      3.04524347e-05 5.04515832e-04 3.57273879e-04 1.21904639e-04
      -1.96470326e-04 -5.60234730e-05 0. 0. 0. 0. -1.17240916e-05
      -9.17982179e-05 -7.25043064e-05 -1.63264431e-05 -3.61389626e-04
      2.53880164e-04 3.67622270e-04 5.05490054e-04 3.88272310e-04
      1.45999642e-04 1.20009623e-04 1.92783831e-04 2.02570827e-05
      -6.14645614e-05 -4.11862566e-05 -2.01603871e-05 -4.04124439e-05 0.
      0. 0. -7.53804727e-07 -3.80527999e-05 -1.07559303e-04
      -1.20704899e-04 -1.54957903e-04 2.23090712e-04 -7.41751719e-05
      -2.13997293e-04 9.63023340e-05 2.92716635e-04 1.60946962e-04
      3.83406295e-05 -7.40906307e-06 -1.06307862e-05 -1.09471694e-05
      -9.66825883e-06 -2.27319997e-05 0. 0. 0. 0. 0. 0. 0.
      -9.99748227e-06 0. -1.71441807e-05 -5.57185849e-05 -1.42868168e-06
      0. 0. 0. 0. 0. 0. 0. 0. 0. 0. 0. 0. 0. 0. 0. 0. 0. 0. 0. 0. 0. 0.
      0. 0. 0. 0. 0. 0. 0.</_>
    <_>
      0. 0. 0. 0. 0. 0. 0. 0. 0. 0. 0. 0. 0. 0. 0. 0. 0. 0. 0. 0. 0. 0.
      0. 0. 0. 0. 0. 0. 0. 0. 0. 0. 0. 0. 0. 0. 0. 0. 0. 0. 0. 0. 0. 0.
      0. 0. 0. 0. 0. 0. 0. 2.82741876e-05 7.97587927e-05 9.19413287e-06
      -3.71399597e-04 -4.11839515e-04 1.43825737e-05 -1.69728366e-06 0.
      0. 0. 0. 0. 0. -2.59638182e-06 -2.03383242e-05 -8.87097121e-06
      4.67713944e-05 7.91680577e-05 2.80992041e-04 7.34568690e-04
      8.69180716e-04 7.35933951e-04 1.64276003e-04 2.12888393e-04
      5.15911030e-04 7.20760843e-04 3.20014369e-04 0. 0. 0. 0. 0. 0.
      -1.55782909e-05 1.08526772e-04 2.40742011e-05 -1.12802438e-04
      7.57847520e-05 7.73865497e-04 1.71254051e-03 1.57041778e-03
      6.72519382e-04 -1.42700737e-04 -5.55089500e-04 1.75432811e-04
      1.73975178e-03 7.84277276e-04 0. 0. 0. 0. -5.86804672e-05
      -4.97121247e-04 -3.75469186e-04 -1.47768806e-04 -5.48264543e-05
      -2.18842342e-05 -2.85259506e-04 -3.50438844e-04 1.52666669e-03
      2.35110102e-03 9.68339446e-04 8.53388046e-04 -3.12898424e-04
      -1.26800092e-04 3.93516457e-05 4.01567551e-04 -1.12928763e-04 0.
      0. 0. -6.08903538e-05 -6.62150211e-04 -1.07121875e-03
      -9.10660543e-04 -8.77272803e-04 6.33809133e-04 7.14922557e-04
      -3.09154537e-04 -8.79425497e-04 4.49805491e-04 1.36202958e-03
      1.19369186e-03 -1.35431206e-03 -1.80230578e-04 -2.99368869e-04
      -7.83927040e-04 -4.71887877e-04 0. 0. 0. 8.52925768e-06
      -3.08825984e-04 -9.92371002e-04 8.24727176e-05 2.43109273e-04
      8.27674085e-05 -1.72544314e-04 -2.93915917e-04 7.70560873e-04
      3.48839356e-04 1.79335638e-03 1.69724214e-03 4.75614273e-04
      1.40282849e-03 1.06048957e-03 -9.10410017e-04 -3.00969754e-04 0.
      0. 0. 9.73901115e-06 -3.66707711e-04 -6.50248956e-04
      2.91576231e-04 -6.21120096e-04 -1.27978949e-03 9.99363037e-05
      5.53208629e-05 5.69101074e-04 9.81530524e-04 1.05718523e-03
      1.37722574e-03 5.86290029e-04 -4.87074401e-04 1.13617443e-03
      1.67881080e-04 1.72091255e-04 0. 0. 0. -1.43339872e-04
      -2.82518413e-05 -4.08045249e-04 -7.19460368e-05 -1.10939273e-03
      -6.28176131e-05 1.90074454e-04 -7.46899634e-04 -8.03047908e-04
      -1.30117696e-03 -1.28622528e-03 -1.91588851e-03 7.83976502e-05
      1.13877162e-04 1.62143738e-03 5.07523422e-04 -2.04286829e-04 0. 0.
      0. -5.15576685e-04 2.18811142e-03 7.97313929e-04 -3.33811040e-04
      6.09427691e-04 -1.32000097e-03 -1.09161751e-03 -1.96340540e-03
      -2.83980928e-03 -2.89295311e-03 -4.17965086e-04 -7.41290103e-04
      4.64398217e-05 8.32520658e-04 -1.08582819e-04 4.51381275e-05
      -3.45034030e-04 -6.64696336e-06 0. 0. -7.77683628e-04
      1.18601113e-03 6.52151764e-04 2.22118731e-04 1.02363643e-03
      5.69281019e-06 -1.41575828e-03 -1.08475948e-03 -7.26058381e-04
      4.98479407e-04 3.70942114e-04 2.49370030e-04 1.47690997e-04
      -4.04032733e-04 -1.59983337e-03 6.32905052e-04 -1.17009164e-04
      -2.76956816e-05 0. 0. -3.25051806e-04 -4.76696907e-04
      8.40642606e-04 1.65549794e-03 1.04304589e-03 1.90334686e-04
      -3.38802674e-05 -2.84527428e-04 9.49797322e-05 -2.80316483e-04
      -7.05350976e-05 2.75307801e-04 -9.98025062e-04 -1.06034603e-03
      -1.01915910e-03 5.87803428e-04 -1.02648257e-04 -2.17872694e-05 0.
      0. -9.06050047e-07 -6.47995912e-04 5.80097956e-04 6.38753409e-04
      5.66255185e-04 4.05973318e-04 8.42769339e-04 4.47658647e-04
      2.16006243e-04 -7.42956647e-04 8.44107301e-04 -1.02235725e-04
      -2.72400415e-04 -1.48080802e-03 -4.47866332e-04 4.09429485e-04
      -2.47414755e-05 0. 0. 0. -8.62973611e-05 -8.42512061e-04
      -2.55638588e-05 -7.19728821e-04 -4.50713269e-04 1.63864298e-03
      1.20519428e-03 -1.11333866e-04 4.77328547e-04 1.57097413e-04
      6.56580087e-04 3.26108158e-04 -6.99313183e-04 -9.40143655e-04
      4.89023689e-04 6.83830222e-05 0. 0. 0. 0. -1.07296022e-04
      -8.14301951e-04 -8.65504204e-04 -1.26869848e-03 -1.53229586e-04
      1.91028358e-03 2.04312499e-03 2.65734183e-04 -5.53594262e-04
      -4.10310837e-04 7.18370778e-04 8.53165402e-04 -1.99633723e-04
      -2.20624133e-04 -7.13324480e-05 -3.24547727e-06 0. 0. 0. 0.
      -1.28306565e-05 9.45967695e-05 1.71357184e-04 -5.44122129e-04
      -9.22373292e-05 1.40625064e-03 1.61091820e-03 1.35646365e-03
      1.23622140e-03 1.09935272e-03 1.24226953e-03 -8.16848769e-05
      -1.00244128e-03 -5.82659151e-04 -1.90401333e-05 0. 0. 0. 0. 0.
      -1.92273037e-05 -2.92054256e-06 -3.97519587e-04 -1.12936995e-03
      -1.80672016e-03 -1.04446110e-04 7.64230383e-04 6.75755728e-04
      1.09514804e-04 -4.14258073e-04 -9.60565638e-04 -1.24068186e-03
      -7.51181622e-04 -5.75818121e-05 -4.32730303e-07 0. 0. 0. 0. 0.
      -4.73241635e-05 -2.34917403e-04 -3.72067327e-04 -8.17736844e-04
      -1.17146794e-03 -3.15328740e-04 1.12993976e-05 1.71390129e-04
      2.16688670e-04 -2.69607262e-04 -6.12853502e-04 -2.99744745e-04 0.
      0. 0. 0. 0. 0. 0. 0. 0. 0. -2.81537010e-04 -1.54353664e-04
      -3.35933582e-04 -3.13100973e-05 0. 0. 0. 0. 0. 0. 0. 0. 0. 0. 0.
      0.</_>
    <_>
      0. 0. 0. 0. 0. 0. 0. 0. 0. 0. 0. 0. 0. 0. 0. 0. 0. 0. 0. 0. 0. 0.
      0. 0. 0. 0. 0. 0. 0. 0. 0. 0. 0. 0. 0. 0. 0. 0. 0. 0. 0. 0. 0. 0.
      0. 0. 0. 0. 0. 0. 0. -1.74991728e-05 -2.33322294e-06 0.
      8.69539781e-06 1.05586978e-05 0. 0. 0. 0. 0. 0. 0. 0. 0. 0.
      -3.69160625e-05 2.58111704e-05 -1.62945580e-04 -1.41789598e-04
      3.78257646e-05 6.84781699e-05 2.44866133e-05 -5.61704510e-05
      1.19278957e-04 1.43350684e-04 6.33465243e-05 3.10549945e-06 0. 0.
      0. 0. 0. -1.58211697e-05 -1.95127752e-04 -3.66523745e-04
      -5.27372293e-04 -4.00558405e-04 1.26261046e-04 7.69481238e-04
      5.18115005e-04 7.51357409e-04 8.91478558e-04 1.81228723e-04
      5.36517182e-04 6.55595504e-04 1.91724626e-04 1.18008975e-05 0. 0.
      0. 0. -1.46491482e-04 -3.58700374e-04 -6.69158937e-04
      -5.65639930e-04 -1.06765590e-04 9.88625223e-04 1.20399310e-03
      8.09042831e-04 1.98081631e-04 6.84093160e-04 4.88895224e-04
      4.50836029e-04 1.95826768e-04 4.28234460e-04 2.91466829e-04
      1.70570838e-05 0. 0. 0. -2.32043807e-04 -6.02582120e-04
      -3.58306192e-04 -1.44620150e-04 -1.13562695e-04 9.73132410e-05
      2.46524462e-04 -1.29008666e-03 -1.18119374e-03 -9.42972198e-04
      -4.41524404e-04 -1.05920411e-03 -9.17400583e-04 -7.03910948e-04
      -5.79126063e-04 -7.71129635e-05 1.51581071e-05 0. 0. 0.
      -1.63485412e-04 -6.26459427e-04 -7.69557199e-04 -1.99375791e-04
      -6.17908954e-04 -1.00211364e-04 -3.90359128e-05 -1.58642561e-05
      3.12734162e-04 6.57453435e-04 2.22494898e-04 2.35277461e-04
      -4.28458414e-04 1.08374872e-04 1.29547378e-04 7.18605123e-04
      1.28346728e-05 0. 0. 0. 0. -1.02963194e-03 -2.01468298e-04
      1.08857690e-04 -3.86097345e-05 -3.92191985e-04 1.44467223e-04
      5.10692073e-04 -6.60151727e-06 -5.34548657e-04 -9.71138070e-04
      4.15876595e-04 3.91563604e-04 1.65247111e-04 6.89433480e-04
      1.08986278e-03 1.63738223e-04 0. 0. 0. 0. -7.80187023e-04
      7.32667570e-04 7.10554246e-04 3.06113099e-04 -5.46473777e-04
      4.48879320e-04 -9.68410313e-05 -5.05746924e-04 -3.65326123e-04
      -1.42301794e-03 -5.19405759e-04 -3.49965267e-04 1.61310909e-05
      -2.63221242e-04 1.38250471e-03 2.97853432e-04 0. 0. 0. 0.
      3.16999038e-04 1.98688684e-03 1.53909496e-03 5.76964871e-04
      7.01289915e-04 8.76711623e-04 -4.73408756e-04 -1.47417537e-03
      -1.85730890e-03 -2.10620323e-03 -1.47663616e-03 -6.06490823e-04
      -7.30362313e-04 -1.33588968e-04 1.24054728e-03 2.28030360e-04 0.
      0. 0. -2.23674833e-05 -1.01333833e-03 1.24137814e-03
      1.26204232e-03 3.17528640e-04 3.56248056e-04 1.60619232e-03
      -1.33582653e-04 -1.06920597e-04 -6.39814418e-04 -2.93165620e-04
      -7.04867707e-04 -8.91927572e-04 -5.94551850e-04 -3.14300298e-04
      5.61337511e-04 1.59017203e-04 0. 0. 0. -1.60690950e-04
      6.96844305e-04 1.16904010e-03 3.10629082e-04 1.51081767e-03
      2.15670746e-03 2.62110005e-03 -1.12776419e-04 -1.50619738e-03
      -1.25722308e-03 -6.39482227e-04 2.24930955e-05 -1.95472312e-04
      -1.00645865e-03 -1.77509908e-03 2.63848284e-04 1.11118425e-05 0.
      0. 0. -1.67459119e-04 -5.73737430e-04 -6.59245590e-04
      2.64662413e-05 2.63581146e-03 2.61161337e-03 7.13566551e-04
      -1.23936799e-04 -8.36884079e-04 1.34200207e-04 9.83862206e-04
      -3.79091391e-04 2.24105988e-05 -8.51557590e-04 -1.77563727e-03
      -1.37295239e-04 -6.86443964e-05 0. 0. 0. -5.00090609e-05
      -5.50876895e-04 -8.99879728e-04 9.23297077e-04 2.04000250e-03
      -3.17602394e-06 3.66038410e-04 1.49968802e-03 7.47778395e-04
      4.66740312e-04 1.94580309e-04 -1.15337351e-03 -2.66086485e-04
      -5.47659933e-04 -5.15860505e-04 9.40731406e-05 -4.16619187e-05 0.
      0. 0. 0. -2.18822723e-04 -7.69622973e-04 9.01851628e-04
      5.70572971e-04 5.78084786e-04 1.83851586e-03 1.03450008e-03
      7.55312329e-04 1.18075644e-04 -2.49999830e-05 3.01074877e-04
      1.49846179e-04 -3.89328459e-04 6.36689190e-04 2.79053784e-04 0. 0.
      0. 0. 0. -1.28312604e-04 -8.10371595e-04 -1.53650355e-04
      1.56800161e-04 -4.03041886e-05 9.49654204e-04 5.45514806e-04
      2.51427409e-04 4.55535774e-04 -5.35245519e-04 -4.04285471e-04
      -5.46895491e-04 -3.11725889e-05 3.38197482e-04 0. 0. 0. 0. 0. 0.
      0. -1.06158455e-04 -3.98350443e-04 -1.15776114e-04 4.45063197e-04
      8.39207089e-04 2.66302726e-04 3.09044233e-04 3.21597065e-04
      4.30688408e-04 3.22477019e-04 1.18140797e-05 5.63662470e-05 0. 0.
      0. 0. 0. 0. 0. 0. -6.17601254e-05 -4.28336352e-04 -3.10792908e-04
      0. 0. 0. 0. 0. 0. -6.02816453e-06 0. 0. 0. 0. 0. 0. 0. 0. 0. 0. 0.
      -2.70947639e-04 -2.21141105e-04 0. 0. 0. 0. 0. 0. 0. 0. 0. 0. 0.
      0. 0. 0.</_>
    <_>
      0. 0. 0. 0. 0. 0. 0. 0. 0. 0. 0. 0. 0. 0. 0. 0. 0. 0. 0. 0. 0. 0.
      0. 0. 0. 0. -2.71499573e-07 -4.34399317e-06 -7.12686369e-06
      -2.03624677e-06 0. 0. 0. 0. 0. 0. 0. 0. 0. 0. 0. 0. 0. 0. 0.
      -6.71182852e-06 -3.69829322e-05 -1.45367536e-04 -3.92895134e-04
      -1.56754380e-04 -2.36732126e-06 -7.28923696e-05 -1.29167442e-04
      3.12449702e-04 6.87750580e-04 7.59607705e-04 3.41161562e-04
      -6.23681171e-06 0. -1.11715372e-06 0. 0. 0. 0. -3.01584241e-05
      -2.29219819e-04 -3.09756433e-04 -4.57480841e-04 -4.60124691e-04
      -1.64902754e-04 -3.41400009e-05 -5.64248767e-04 -4.01173631e-04
      5.66370843e-04 9.17321013e-04 3.91016831e-04 1.33122841e-04
      -2.79630447e-04 -2.53648759e-04 -5.19578825e-05 0. 0. 0.
      -2.19756521e-06 -9.61287005e-05 -5.60425571e-04 -5.07370569e-04
      -5.56203013e-04 7.01449317e-05 2.91252771e-04 -2.57933367e-04
      -1.20249446e-04 5.35947271e-04 1.30984851e-03 1.20715692e-03
      7.46244856e-04 1.36470426e-05 -6.54004107e-04 -5.35472296e-04
      -9.52839182e-05 0. 0. 0. -3.39078397e-05 -3.54334712e-04
      -5.72087825e-04 -9.82993515e-04 -6.23829314e-04 4.01065627e-04
      1.87511047e-04 9.96062081e-05 1.93741274e-04 6.42191226e-05
      1.65506592e-03 9.57724813e-04 5.49053831e-04 -3.91738111e-04
      -6.95449999e-04 -4.07656218e-04 -4.33317909e-05 0. 0. 0.
      -1.55716509e-04 -4.41371434e-04 -5.12337429e-04 -7.27589650e-04
      -6.89971857e-05 3.68519977e-04 6.30642317e-05 -4.15247137e-04
      -3.38865008e-04 5.38975873e-04 1.16806442e-03 8.73493438e-04
      5.31258274e-06 -7.34402856e-05 -3.78421304e-04 -1.19199001e-04
      -1.74305103e-06 0. 0. 7.06563060e-06 -7.81558920e-05
      -2.22310482e-04 -5.78158360e-05 1.77664100e-04 2.68118129e-05
      3.14578210e-04 -1.99693721e-04 2.63254769e-04 4.67460020e-04
      1.27957354e-03 1.40420592e-03 9.80810961e-04 4.23139922e-04
      7.16791954e-04 -3.15112266e-04 -7.17657618e-04 -7.28889499e-05 0.
      0. 1.47384826e-05 -7.28048253e-05 1.15154166e-04 2.91712873e-04
      -1.72135158e-04 2.77815616e-05 4.17419506e-04 -5.37978049e-05
      3.08415445e-04 4.32496425e-04 6.85642299e-04 8.40457738e-04
      6.10229734e-04 3.14866425e-04 5.89192088e-04 -4.42601595e-04
      -6.27668283e-04 -1.00635552e-04 0. 0. 4.18907839e-05
      3.34072101e-04 5.23343624e-04 -1.72275959e-05 2.89690273e-04
      2.60944187e-04 3.07047594e-04 -8.26940814e-05 1.46927632e-04
      -8.87194357e-04 -1.70077838e-04 3.93534283e-05 -1.80835254e-04
      -1.32385812e-05 9.31285322e-04 1.36578601e-04 4.95184504e-05
      -5.68564610e-06 0. 0. 1.51085027e-04 1.12510310e-03 6.29642163e-04
      -6.35153483e-05 6.83490769e-04 7.52882101e-04 1.63384146e-04
      -6.00972504e-04 -8.23605456e-04 -1.23622851e-03 -2.03680363e-04
      -3.43252032e-05 -9.98561038e-04 3.55630269e-04 2.48567172e-04
      7.66274534e-05 -2.53497390e-04 -5.57412977e-06 0. 0.
      2.11925581e-04 1.08051335e-03 3.43046064e-04 3.01468062e-05
      2.68260075e-04 -1.04351893e-04 -6.40824379e-04 -7.82620336e-04
      -7.71085324e-04 -6.27007103e-04 -4.87119745e-04 -9.38605008e-05
      -1.06894950e-04 3.12064891e-04 -2.83171597e-04 -1.15696108e-04
      -4.29464155e-04 0. 0. 0. 2.16100525e-04 7.38591596e-04
      8.31432350e-04 2.08452868e-04 -5.23351599e-04 -8.49717995e-04
      -5.06930519e-04 -6.41246501e-04 -3.94758710e-04 -3.51064053e-04
      -5.72207909e-06 9.51022084e-05 2.95309408e-04 -3.09711730e-04
      -5.34271057e-05 5.48330572e-05 -5.08248377e-05 0. 0. 0.
      8.96852634e-06 2.54589715e-04 3.96070915e-04 -4.95554450e-05
      -6.35001779e-05 -4.45205253e-04 -1.67795486e-04 -8.01227652e-05
      -8.59376451e-05 -6.45130756e-04 -4.21465491e-04 2.75161903e-04
      -1.11334477e-04 8.79526760e-06 6.65889645e-04 2.23569092e-04 0. 0.
      0. 0. 2.53695798e-05 2.72067642e-04 1.31363617e-04 7.14117778e-05
      -1.23163467e-04 -3.03509354e-04 2.19785259e-04 -1.29028733e-04
      -3.73512827e-04 -3.53552110e-04 2.42029375e-04 1.91171668e-04
      -2.15596796e-04 5.19363501e-04 2.03249743e-04 -2.91990320e-04
      -2.01902556e-04 -6.16782636e-05 0. 0. 1.66351165e-05
      2.25036390e-04 1.71932712e-04 2.18850619e-04 1.29518303e-04
      5.94092089e-05 -1.58913361e-04 -7.18604497e-05 2.62628950e-04
      6.34681899e-04 7.90959049e-04 4.47629078e-04 1.01871497e-04
      -1.57936360e-04 -4.92727035e-04 -5.39846485e-04 -6.37109217e-04
      -4.91006242e-04 0. 0. 1.82490021e-05 1.46505219e-04 2.02788971e-04
      2.98582774e-04 -1.96931214e-04 1.51621425e-05 -1.56931666e-04
      1.06266307e-04 6.45116204e-04 7.48049410e-04 6.50960836e-04
      1.04617240e-04 -4.10874381e-05 -5.67838970e-06 -1.78982100e-05
      -8.94910499e-06 -1.86571197e-04 -1.75493886e-04 0. 0.
      1.05943536e-05 1.08256412e-04 1.24026192e-04 1.21259814e-04
      5.46844421e-05 1.36657560e-04 5.65511182e-05 3.65456217e-04
      5.97609906e-04 6.46424829e-04 2.40137393e-04 -2.53313279e-04
      -5.06663528e-05 0. 0. 0. -8.94910499e-06 -2.23727625e-06 0. 0. 0.
      0. 0. 0. 0. 0. 0. 0. 0. 0. 0. 0. 0. 0. 0. 0. 0. 0. 0. 0. 0. 0. 0.
      0. 0. 0. 0. 0. 0. 0. 0. 0. 0. 0. 0. 0. 0. 0.</_>
    <_>
      0. 0. 0. 0. 0. 0. 0. 0. 0. 0. 0. 0. 0. 0. 0. 0. 0. 0. 0. 0. 0. 0.
      0. 0. 0. 0. 0. 0. 0. 0. 0. 0. 0. 0. 0. 0. 0. 0. 0. 0. 0. 0. 0. 0.
      0. 0. 0. 0. 0. 0. 0. 0. 1.88963497e-07 1.51170798e-06
      1.28298575e-06 9.84272106e-07 0. 0. 0. 0. 0. 0. 0. 0. 0. 0.
      -4.28891053e-06 -1.13395272e-05 1.00199550e-05 4.72793981e-05
      6.82350656e-05 6.71762755e-05 4.05631654e-05 -1.15620816e-04
      -2.12298604e-04 3.92469083e-05 1.54921523e-04 2.18813788e-04 0. 0.
      0. 0. 0. 0. -3.47566197e-06 1.29322565e-04 5.58196116e-05
      7.98220753e-06 1.34430957e-04 3.24444671e-04 6.74519397e-04
      5.60791290e-04 3.86412285e-04 6.13406010e-05 -2.87444243e-04
      2.13528299e-04 5.74630627e-04 4.90531791e-04 0. 0. 0. 0. 0.
      -1.55324619e-06 -1.50885593e-04 8.18538101e-05 -3.93803668e-04
      -4.39014839e-04 -2.20901566e-04 2.38146866e-04 5.35604777e-04
      4.92442574e-04 2.45468953e-04 7.22076918e-04 9.27250076e-04
      -2.35234984e-06 -1.57012779e-04 2.29942452e-04 0. 0. 0. 0. 0.
      -1.01281905e-04 -3.85500083e-04 -3.21731466e-04 -9.27340356e-04
      -2.49268720e-04 1.62371623e-04 2.61371373e-04 3.69209389e-04
      9.20827151e-04 4.21039818e-04 -6.23067608e-05 -8.73481549e-05
      1.05604238e-04 3.78218829e-04 2.94061338e-05 0. 0. 0. 0.
      1.01115193e-05 -3.00908432e-04 -8.09968449e-04 -7.16155511e-04
      -9.80449840e-04 -2.96050275e-04 -2.98065977e-04 6.44589454e-05
      4.09250788e-04 1.55272981e-04 -2.57559936e-04 3.78926343e-04
      5.39065513e-04 5.34946565e-04 1.00885727e-03 2.34662570e-04
      9.33166011e-05 0. 0. 0. 7.48260063e-05 -6.33411342e-04
      -1.23500254e-03 -5.91660675e-04 -6.88709726e-04 -4.89232654e-04
      3.91563924e-04 2.57846841e-04 -5.24981471e-04 -9.45851731e-04
      -3.29117262e-04 9.48962464e-04 1.49323605e-03 6.84893865e-04
      1.40789707e-04 -1.25420367e-04 2.65575422e-04 0. 0. 0.
      1.59838324e-04 -5.04602103e-05 -7.39339623e-04 -2.88887590e-04
      -5.30279591e-04 -6.78653523e-05 2.50535231e-04 -7.12397799e-04
      -9.10113566e-04 -2.01900047e-03 -1.15007139e-03 -1.18728541e-03
      2.56509171e-04 -3.87562468e-04 4.69126331e-04 -5.28890116e-04
      1.88305290e-04 0. 0. 0. 3.25037021e-04 1.41350040e-03
      3.56694974e-04 1.16943102e-03 5.27282245e-04 5.18305111e-04
      1.69776558e-05 -2.70361849e-03 -2.77694198e-03 -2.22049095e-03
      -2.46675685e-04 -6.03724147e-05 3.64415580e-04 3.51861614e-04
      6.15472905e-04 -6.54632575e-04 1.03461650e-06 0. 0. 0.
      8.88167997e-05 5.15689200e-04 2.23503652e-04 4.48225153e-04
      4.13770886e-06 4.96178458e-04 -1.93527940e-05 -1.31420163e-03
      -1.88821205e-03 -1.45091314e-03 -4.32793197e-04 7.01411627e-04
      1.39735441e-03 6.35176431e-04 2.12553365e-04 3.78838566e-04 0. 0.
      0. 0. -9.50571193e-05 -4.66465164e-04 1.20111526e-05
      3.75296455e-04 3.03358102e-04 3.39086255e-04 9.05618770e-04
      1.18249904e-04 -1.32478820e-03 -1.43315829e-03 2.59267254e-04
      9.16963385e-04 -1.78769013e-04 -8.60429951e-04 4.63345728e-04
      4.07917862e-04 0. 0. 0. 0. 1.11688103e-04 -1.08084225e-06
      -3.37297592e-04 -6.30721916e-04 -3.36200552e-04 -7.62263007e-05
      3.32523778e-04 -1.88692691e-04 3.69502231e-04 -5.29782323e-04
      1.48278137e-04 -4.58399045e-05 -3.63970117e-04 2.38191991e-04
      6.67143438e-04 -1.39003707e-04 0. 0. 0. 0. 2.41808539e-05
      -1.22516823e-04 1.63314166e-04 -5.45800664e-04 -6.25987654e-04
      -1.81017225e-04 1.84959063e-05 7.69948005e-04 1.24994549e-03
      4.61842486e-04 3.74710828e-04 -3.82493046e-04 -5.20945352e-04
      3.48033966e-04 -9.95200535e-05 -4.26496350e-04 0. 0. 0. 0.
      -4.65820085e-05 -2.97756313e-04 -1.84387711e-04 -2.48889351e-04
      -2.09734397e-04 -2.30289937e-04 -3.65779233e-05 1.69900493e-04
      4.93764586e-04 3.11856566e-04 8.45586183e-04 6.04034925e-04
      9.73291026e-05 -2.01641145e-04 -5.12532482e-04 -1.56404785e-04 0.
      0. 0. 0. -1.34691372e-05 -6.86696148e-05 -1.05885294e-04
      -1.15728923e-04 -2.47258635e-04 1.77020731e-04 4.13621281e-04
      7.25110702e-04 2.86635419e-04 4.33559064e-04 6.62827631e-04
      4.83134179e-04 1.41386772e-04 -9.99988915e-05 -1.14696850e-04
      -3.47566197e-06 0. 0. 0. 0. 0. 1.21586561e-06 -1.42285680e-05
      -5.77864375e-05 -2.79713131e-04 -2.06331883e-04 -1.40675274e-05
      2.84609036e-04 -1.94183638e-04 -1.46789253e-05 -9.58820601e-05
      -1.76157511e-04 -1.02524813e-04 -9.43560372e-06 0. 0. 0. 0. 0. 0.
      0. 0. 0. -3.36999301e-06 -6.53657407e-05 -1.77670590e-05
      -1.61533660e-06 -1.16860807e-04 -4.09012828e-05 0. 0. 0. 0. 0. 0.
      0. 0. 0. 0. 0. 0. 0. 0. 0. 0. 0. 0. 0. 0. 0. 0. 0. 0. 0. 0. 0. 0.
      0.</_>
    <_>
      0. 0. 0. 0. 0. 0. 0. 0. 0. 0. 0. 0. 0. 0. 0. 0. 0. 0. 0. 0. 0. 0.
      0. 0. 0. 0. 0. 0. 0. 0. 0. 0. 0. 0. 0. 0. 0. 0. 0. 0. 0. 0. 0. 0.
      0. 0. 0. -1.88490688e-07 -4.69444467e-06 -5.79902371e-05
      -6.46987610e-05 5.18319712e-06 5.89657211e-05 6.74700932e-05
      6.45810360e-05 4.02333753e-05 2.87381272e-06 0. 0. 0. 0. 0. 0. 0.
      0. 0. 1.87068199e-05 -2.79196684e-05 -2.49632081e-04
      -3.92202957e-04 -4.43177269e-05 1.88396327e-04 9.10041505e-04
      9.61437006e-04 6.74236275e-04 3.83477425e-04 1.52670764e-04
      4.33494060e-05 0. 0. 0. 0. 0. 0. 0. 6.76323543e-05 -1.43445664e-04
      -3.05801572e-04 -1.21709927e-04 1.38721562e-05 1.07758003e-03
      5.67487208e-04 5.21039066e-04 8.75830825e-04 1.59580391e-04
      3.14394041e-04 3.38823273e-04 1.13009475e-04 -3.33327739e-06 0. 0.
      0. 0. 0. 6.17794722e-05 -4.68746119e-04 -1.04843790e-03
      -8.76226870e-04 -1.05899945e-03 -6.63670769e-04 7.99631292e-04
      1.17981376e-03 8.61890148e-04 1.04848552e-03 1.51793109e-04
      -5.85098169e-05 -8.44883762e-05 -3.74202937e-05 -1.18847784e-04
      -3.52768961e-06 0. 0. 0. 5.51392567e-08 -4.43551020e-04
      -7.01259472e-04 -2.27145472e-04 4.37682960e-04 -7.94966181e-04
      7.17652147e-05 7.15346541e-04 5.26542310e-04 6.32639101e-04
      8.95361081e-05 9.19436221e-04 3.83655279e-04 2.43914896e-04
      -5.12830447e-04 -2.37546032e-04 -3.45713597e-05 0. 0.
      1.12747130e-05 1.54151916e-04 -5.75306040e-05 -3.11413838e-04
      -6.30615919e-04 -4.28926316e-04 -5.50903089e-04 6.10459480e-04
      1.78024231e-03 8.71025142e-04 1.01878413e-03 -3.59850128e-05
      1.24512904e-03 8.06247408e-04 1.97636941e-03 -7.03410711e-04
      -3.10477830e-04 -7.76091747e-06 0. 0. 3.13867422e-05
      -1.80362724e-04 3.81504302e-04 -5.37120271e-04 2.61473397e-05
      -1.00355316e-03 -3.37703794e-04 3.71097209e-04 9.04478948e-04
      7.43798737e-04 6.82835001e-04 6.40541373e-04 1.05475425e-03
      -2.75942264e-04 1.87943969e-03 -6.58525852e-04 -5.26404707e-04
      -1.79512267e-06 0. 0. 1.68616665e-04 7.43361830e-04 8.99717212e-04
      2.74040969e-04 1.33432180e-03 8.53181467e-04 -6.35813980e-04
      -6.35197677e-04 -2.98916071e-04 -1.23288576e-03 -1.07137894e-03
      -4.88277845e-04 1.49674132e-03 -8.92808952e-04 1.68239640e-03
      3.31291347e-04 -3.24441236e-04 -2.51317178e-05 0. 0.
      1.00035970e-04 8.37710802e-04 5.73848316e-04 -3.99905053e-04
      3.87369655e-04 9.58716031e-04 -8.81606305e-04 -1.50855666e-03
      -1.52039016e-03 -1.74565520e-03 -8.95440753e-04 -4.31127904e-04
      -1.40900476e-04 6.83245657e-04 1.43905927e-03 1.27267221e-03
      -3.96432297e-05 -1.52585426e-05 0. 0. 1.26053710e-04
      6.22068357e-04 1.39282085e-04 -2.66628544e-04 5.47995034e-04
      1.23322429e-03 -8.81611952e-04 -1.44732138e-03 -1.15236337e-03
      -1.01177744e-03 -6.33990159e-04 -6.49263908e-04 -3.90059518e-04
      3.09192488e-04 -1.30661868e-03 -4.31432272e-04 0. -4.73693547e-07
      0. 0. 1.93482716e-04 4.73039167e-04 -7.32772576e-04
      -1.20796503e-05 2.02338997e-05 6.82829588e-04 -5.14106359e-04
      -4.57816874e-04 -9.63488768e-04 -6.94607268e-04 -5.39141300e-04
      -3.57982353e-04 3.74386320e-04 -1.55666459e-03 -1.12190016e-03
      -2.54079700e-04 0. 0. 0. 0. 2.13493666e-04 6.12680975e-04
      -7.58961178e-05 1.04229001e-03 -1.06376348e-04 -1.30105676e-04
      -1.99764501e-04 -4.86336241e-04 -1.21119793e-03 -6.22784137e-04
      3.12477001e-04 7.29794905e-04 -3.89138237e-04 -3.47978785e-04
      7.44918943e-04 8.38022825e-05 -5.94702215e-05 0. 0. 0.
      4.67391692e-05 2.68162315e-04 -3.31579999e-04 -7.96336157e-04
      -1.21126836e-03 -5.77741826e-04 -3.00272746e-04 -1.39813812e-04
      -1.08767953e-03 -3.64589214e-04 -3.94073286e-04 -2.47741817e-04
      -2.39304733e-04 2.90261931e-04 9.54640200e-05 -3.47421097e-04
      -2.04886339e-04 0. 0. 0. 0. 9.24101550e-05 6.55093114e-04
      4.32690897e-04 -3.44954111e-04 -4.52913839e-04 2.07021192e-04
      6.87715423e-04 8.34431557e-04 -2.44632374e-05 7.49565137e-04
      1.20383140e-03 8.37914820e-04 3.77303280e-04 -7.27603401e-05
      -2.11491613e-04 -4.54455585e-05 0. 0. 0. 0. 0. 2.60539062e-04
      1.00462686e-03 3.39776889e-04 2.14985412e-04 4.46929422e-04
      4.44932812e-04 -5.93693330e-05 1.23694452e-04 2.90618082e-05
      -4.14014299e-04 -8.14415107e-04 -1.01507152e-03 -5.18990390e-04
      -1.34492802e-04 -4.96358780e-06 0. 0. 0. 0. 0. 8.23524715e-06
      5.47547883e-04 5.04167343e-04 1.78644841e-04 2.62658490e-04
      4.99046640e-04 5.75847866e-04 6.07950496e-04 2.65907496e-04
      -5.11273334e-04 -1.12645095e-03 -1.10849959e-03 -5.45856601e-04
      -9.15979854e-06 -6.91132470e-07 0. 0. 0. 0. 0. 0. 0. 0. 0. 0. 0.
      0. 0. 0. 0. 0. 0. 0. 0. 0. 0. 0. 0. 0. 0. 0. 0. 0. 0. 0. 0. 0. 0.
      0. 0. 0. 0. 0. 0. 0. 0.</_>
    <_>
      0. 0. 0. 0. 0. 0. 0. 0. 0. 0. 0. 0. 0. 0. 0. 0. 0. 0. 0. 0. 0. 0.
      0. 0. 0. 0. 0. 0. 0. 0. 0. 0. 0. 0. 0. 0. 0. 0. 0. 0. 0. 0. 0. 0.
      0. 0. 0. 0. 0. 0. -9.94964284e-06 -4.41178527e-05 -6.09976742e-05
      -5.52342899e-05 -3.81026766e-05 -1.47387091e-05 0. 0. 0. 0. 0. 0.
      0. 0. -2.07287565e-04 -7.94882653e-04 -1.09166151e-03
      -6.48686037e-05 0. -3.98859884e-05 -4.00636956e-04 -5.71231241e-04
      -6.56858727e-04 -6.48499932e-04 -4.48087958e-04 -1.85906145e-04
      4.30708269e-06 3.72797585e-05 0. 0. 0. 0. -4.72716965e-06
      -2.18065499e-04 -1.15175801e-03 -2.74875923e-03 -2.74499692e-03
      3.95834562e-04 8.03913514e-04 -1.19154080e-04 -7.03675323e-04
      -8.95084231e-04 -1.14780816e-03 -8.39191722e-04 -1.15490133e-04
      6.46882225e-04 -5.54542348e-04 2.07626406e-04 0. 0. 0. 0.
      -4.26407350e-05 -1.30932793e-04 -1.25759386e-03 -2.45482707e-03
      -1.93571474e-03 1.14965529e-04 1.94977305e-03 9.77642485e-04
      -8.82095250e-04 -1.42005843e-03 -1.38134905e-03 -1.48249196e-03
      -4.21673642e-04 2.06622155e-03 6.78128970e-04 -2.94990139e-04 0.
      0. 0. 0. -1.60553565e-04 -7.93597646e-05 8.49022181e-04
      -7.50610663e-04 -4.77417663e-04 -8.19849840e-04 1.30357838e-03
      8.27470038e-04 -3.90497502e-04 -1.10509247e-03 -1.28323166e-03
      -7.90859165e-04 -2.68475641e-03 -3.27673857e-04 1.33546873e-03
      3.28483089e-04 0. 0. 0. 0. -1.55837566e-04 -6.18364313e-04
      -1.00086641e-03 2.65350856e-04 1.13579538e-03 8.39749177e-04
      2.01035826e-03 -4.88876867e-05 -9.53234907e-04 -2.85272230e-03
      -8.35106825e-04 2.52734375e-04 -1.82538584e-03 1.27374908e-04
      -6.55679847e-04 4.17426607e-04 0. 0. 0. -1.92456529e-04
      5.99804393e-04 -8.18595814e-04 -2.60655931e-03 -5.71822631e-04
      -1.62245633e-05 -3.18823913e-05 1.75645153e-04 8.99653242e-04
      6.13025506e-04 -1.42735755e-03 -2.78749852e-03 -1.27421226e-03
      -5.79206855e-04 9.70169669e-04 -1.60956860e-03 5.55713021e-04 0.
      0. 0. -3.49031325e-04 2.49974342e-04 -1.74896931e-03
      -1.10749912e-03 4.98370384e-04 -1.32763037e-03 6.89736975e-04
      2.61860061e-03 2.96773319e-03 2.01825588e-03 7.42288656e-04
      1.13849156e-03 1.88506281e-04 -1.38610241e-03 -1.98192359e-03
      -9.19345650e-04 6.47764595e-04 0. 0. 0. -4.56676498e-05
      1.33325276e-03 6.39190781e-04 -1.40165770e-03 -1.21807563e-03
      5.17154578e-04 2.30814423e-03 2.03745416e-03 2.99324584e-03
      2.12488021e-03 1.89929619e-03 4.61094867e-04 -1.49819651e-03
      -1.53397232e-05 8.85684276e-04 -3.91788017e-05 -1.14915112e-03 0.
      0. 0. 0. 2.10791035e-03 1.36759831e-03 -3.52689211e-04
      7.90482954e-05 -4.31047374e-04 -7.24433703e-05 -1.51267537e-04
      1.36993884e-03 7.13324698e-04 8.73923942e-04 -4.57383518e-04
      -2.27158796e-03 5.75160841e-04 9.08649992e-04 1.77090173e-04
      -1.22916175e-03 0. 0. 0. 0. -9.14010277e-04 -2.78174109e-03
      -1.55797767e-04 -1.97342044e-04 -4.10647917e-04 -6.88344182e-04
      3.49523834e-05 -4.65785357e-04 9.02651052e-04 6.46693574e-04
      -4.16560069e-04 -1.90419913e-03 -1.23446996e-04 -2.63480237e-03
      5.40723093e-04 9.71804780e-04 0. 0. 0. 0. 2.20776594e-04
      3.09020485e-04 1.48799771e-03 1.12050993e-03 1.28467829e-04
      1.39708107e-04 -7.48574035e-04 -1.20900362e-03 -9.81703168e-04
      -1.03072531e-03 -1.54113548e-03 -2.00189534e-04 1.15072799e-04
      -2.82384991e-03 -5.64930844e-04 3.56773417e-05 0. 0. 0. 0.
      -2.92314013e-04 9.51700902e-04 7.10132823e-04 1.52308479e-04
      -7.12709967e-04 -7.51539483e-04 -8.39905872e-04 -8.87173752e-04
      -8.77821061e-04 -1.33763417e-03 -4.82276198e-04 1.77452993e-03
      -1.02832529e-03 -9.44687170e-04 -8.39551387e-04 -9.81958234e-04 0.
      0. 0. 0. -6.70625450e-05 -2.03880976e-04 5.30627614e-04
      5.93094388e-04 1.80089919e-05 -2.60699599e-04 -3.41442879e-04
      -8.42604320e-04 -5.19389228e-04 -3.46266170e-04 -1.86087342e-03
      -1.12640148e-03 9.92111629e-04 7.91561979e-05 -1.38528273e-03
      -9.22595325e-04 0. 0. 0. 0. 0. 4.26646147e-04 1.10850728e-03
      6.25652261e-04 -8.77278399e-06 -1.48701465e-05 -3.88043496e-04
      -7.45290774e-04 -3.47874593e-04 -1.46160557e-04 -5.21286565e-04
      4.19567747e-04 1.09974248e-03 -4.29206149e-04 -1.05837791e-03
      -1.51345332e-04 0. 0. 0. 0. 0. 1.28408064e-04 2.48531724e-04
      3.72797585e-05 0. -1.91670406e-05 -4.65708697e-04 -5.68343326e-04
      -2.00868250e-04 -1.36901828e-04 -3.23294691e-04 2.08986545e-04
      2.72677327e-03 1.24975736e-03 9.99599870e-05 -1.12107655e-05 0. 0.
      0. 0. 0. 0. 0. 0. 0. 6.00507665e-05 -2.45927775e-04
      -3.23867134e-04 -7.12945985e-05 -1.35291208e-04 -1.20188226e-04
      -2.29841302e-04 -2.88204435e-04 5.38791413e-04 1.33898880e-04 0.
      0. 0. 0. 0. 0. 0. 0. 0. 0. 0. -3.09159441e-05 -3.95037059e-05
      -7.51617836e-06 -3.06015827e-05 -4.43832978e-05 -5.23401241e-06
      -1.90417122e-04 -4.16537441e-05 0. 0. 0. 0.</_>
    <_>
      0. 0. 0. 0. 0. 0. 0. 0. 0. 0. 0. 0. 0. 0. 0. 0. 0. 0. 0. 0. 0. 0.
      0. 0. 0. 0. 0. 0. 0. 0. 0. 0. 0. 0. 0. 0. 0. 0. 0. 0. 0. 0. 0. 0.
      -5.61734169e-07 -6.48111163e-05 -3.89178720e-04 -5.82603156e-04
      -1.13716938e-04 0. 0. -3.06102675e-06 -4.25881990e-06
      -3.06102675e-06 0. 0. -2.76768205e-05 -1.04556879e-04
      -3.69024274e-05 0. 0. 0. 0. 0. -1.05459176e-05 -4.15331509e-04
      -1.01349317e-03 -5.91857650e-04 -6.34190583e-05 5.90933450e-05
      1.25573351e-04 -1.87654241e-05 -2.03882882e-04 -5.39684319e-04
      -6.18645106e-04 -2.68167962e-04 -1.78919261e-04 -7.17004994e-04
      -2.70617806e-04 0. 0. 0. 0. 8.30341305e-05 7.73941647e-05
      -3.78250785e-04 -8.57532432e-04 1.44810852e-04 6.43328647e-04
      7.05613114e-04 5.36332482e-05 1.27988154e-04 -1.17622643e-04
      -9.05828434e-04 -9.09253664e-04 -6.39558362e-04 -1.87440761e-04
      -5.70558535e-04 -2.74847465e-04 0. 0. 0. -6.66764390e-06
      8.92760072e-05 3.17414379e-04 2.48190307e-04 -2.69200449e-04
      4.51039559e-05 9.03472828e-04 6.24293752e-04 -3.32314026e-04
      9.46690125e-05 6.25172470e-05 -8.54982762e-04 -5.20416768e-04
      3.79505305e-04 1.10877343e-04 -1.41830009e-03 -2.00661176e-04 0.
      0. 0. -1.06125262e-04 -1.10781093e-05 4.13617614e-04
      -8.64304660e-04 -7.47738406e-04 2.46994197e-04 4.18927724e-04
      -1.23746024e-04 -5.95712452e-04 -2.75931670e-04 9.09928232e-04
      -6.89242443e-04 -1.96700357e-03 -4.23167134e-04 9.50382848e-04
      -1.12720486e-03 -5.42059424e-05 0. 0. 0. -2.57954001e-04
      -4.06746694e-04 -1.27010921e-03 -1.15230784e-03 -6.05097855e-04
      1.33724534e-04 -1.25524210e-04 -9.35466669e-04 -1.17177062e-03
      3.23780667e-04 1.43726938e-03 7.54106441e-04 5.42708673e-04
      -6.74840121e-05 3.34890385e-04 -9.64865380e-04 -8.91366799e-05 0.
      0. 0. -1.43600482e-04 -8.88932729e-04 -1.19635579e-03
      1.52682827e-04 -5.00459901e-05 8.56643310e-04 -5.29476383e-04
      -1.26320869e-03 1.41597542e-04 5.81004485e-07 1.47746410e-03
      -1.56600014e-04 1.05470989e-03 -1.48217636e-03 -3.32468044e-04
      -4.50602412e-04 -4.67347505e-04 0. 0. 0. -1.35844493e-05
      -2.11518444e-03 -1.73888076e-03 -1.15644909e-03 5.75351703e-04
      2.36261287e-03 6.00095955e-04 -3.14474601e-04 -9.29213827e-04
      7.13727786e-04 2.11696071e-03 1.04324648e-03 1.91113941e-04
      5.62274014e-04 2.92037963e-04 -1.23720570e-03 -4.22810524e-04 0.
      0. 0. 2.52581376e-04 -9.09584051e-04 -9.25996981e-04
      -4.54515626e-04 1.40485296e-03 2.80975061e-03 8.40804190e-04
      8.82042863e-04 7.07391533e-04 1.98597577e-03 2.98682693e-03
      1.00544898e-03 -7.14100490e-04 -7.68779952e-04 -1.86370127e-03
      -1.19108683e-03 4.87987272e-05 0. 0. 0. -2.68173870e-04
      4.51269705e-04 5.10829850e-04 -4.02530713e-04 -8.42074805e-04
      1.83084980e-04 1.22630037e-03 2.14792648e-03 4.49635008e-05
      -9.59028373e-04 -2.29117717e-03 -6.37938676e-04 3.07625480e-04
      7.80918053e-04 -1.20285084e-04 6.64697291e-05 -1.51818003e-05
      -6.48464720e-06 0. 0. -1.03482150e-03 -1.82913162e-03
      -1.70049520e-04 -1.78796018e-03 -2.04658345e-03 -1.26676692e-03
      -5.62882400e-04 -7.91423547e-04 8.31708821e-05 6.72573457e-04
      -8.41688074e-04 2.56033207e-04 6.62477629e-04 6.99953467e-04
      8.20083776e-04 3.74380732e-04 -1.34288217e-04 -9.07850626e-05 0.
      0. -1.99975166e-05 1.99807328e-04 9.58213408e-04 -7.25164500e-05
      -3.30904033e-04 -5.58958505e-04 -1.28111336e-03 -1.46707369e-03
      -1.79689238e-03 -1.71960949e-03 -1.59576593e-03 -7.55446497e-04
      3.91420763e-04 -2.52606551e-04 -1.00066020e-04 -7.91791444e-06
      -4.12708410e-04 -1.59954623e-04 0. 0. -3.20574691e-05
      3.03486129e-04 1.13148510e-03 5.53437450e-04 3.00490588e-04
      -6.05612586e-04 -7.60104274e-04 -8.68701027e-04 -1.19378767e-03
      -1.79049443e-03 -1.03692664e-03 3.15275480e-04 -6.64803883e-06
      3.21164116e-04 4.33019566e-04 -8.40843277e-05 -5.74571721e-04
      -1.46985331e-04 0. 0. 9.22238905e-06 -6.05320793e-06
      3.89901805e-04 8.63575726e-04 -4.71045292e-04 -4.06247680e-04
      -3.09228017e-05 -5.45146213e-05 -8.81773012e-05 -2.83175410e-04
      -6.08691771e-04 1.58885319e-04 4.62155003e-04 2.46646610e-04
      -2.02690280e-04 -5.58238535e-04 -3.48009402e-04 -6.48464720e-06 0.
      0. 5.53343307e-06 1.19530858e-04 3.73766015e-05 -3.75620497e-04
      -3.83533974e-04 -7.46372389e-05 -3.60238732e-06 -1.92984935e-05
      -3.59294172e-05 -3.66810236e-05 -1.47655257e-04 5.35975851e-04
      1.21708657e-03 5.41363668e-04 -2.29620113e-04 -3.02616856e-04
      -7.78157628e-05 0. 0. 0. 0. 2.58820146e-05 3.77934157e-05
      -9.63631246e-05 -2.36416508e-05 1.01434744e-04 9.26088396e-05 0.
      -1.23855998e-05 -3.08199815e-05 -3.22601663e-05 4.34020068e-04
      1.32500869e-03 9.78134456e-04 1.66874612e-04 0. 0. 0. 0. 0. 0. 0.
      0. 0. 0. 3.18986014e-04 2.77826504e-04 0. 0. 0. 0. 8.75395108e-06
      1.73854103e-04 4.68539278e-04 1.07530439e-04 0. 0. 0. 0. 0. 0. 0.
      0. 0. 0. 0. 0. 0. 0. 0. 0. 0. 0. 0. 0. 0. 0. 0.</_>
    <_>
      0. 0. 0. 0. 0. 0. 0. 0. 0. 0. 0. 0. 0. 0. 0. 0. 0. 0. 0. 0. 0. 0.
      0. 0. 0. 0. 0. 0. 0. 0. 0. 0. 0. 0. 0. 0. 0. 0. 0. 0. 0. 0. 0. 0.
      0. 0. 0. 0. -2.17593024e-05 -4.14462884e-05 -3.31570300e-05
      -1.03615719e-06 0. 0. 0. 0. 0. 0. 0. 0. 0. 0. 0. 0. 0. 0.
      -2.07231442e-05 -9.73987771e-05 -2.34122650e-04 -2.70388147e-04
      -2.67279684e-04 -1.49333981e-04 4.27402119e-05 0. 0. 0.
      6.38375059e-06 1.91512518e-05 0. 0. 0. 0. 0. 1.45785758e-04
      6.37897290e-04 7.48706880e-05 -2.32195627e-04 -3.06030532e-04
      -1.60186013e-04 -8.60816435e-05 -1.70186351e-04 -1.03351595e-04
      2.90311669e-04 8.53646052e-05 4.10629036e-06 1.69407052e-04
      3.96174029e-04 3.61745886e-04 0. 0. 0. 0. 7.45359794e-05
      8.07697128e-04 6.44037558e-04 4.71433537e-04 -4.11441375e-04
      -6.94869843e-04 -4.53024928e-04 -3.14037461e-04 -2.96855869e-04
      1.57989380e-05 1.58322640e-04 -4.01305333e-05 2.61504174e-04
      5.62603935e-04 6.21965388e-04 1.09744731e-04 -1.28107058e-04
      -1.85868557e-05 0. 0. 1.19873046e-04 7.71007035e-04 6.73291070e-05
      3.78224184e-04 3.43731488e-04 -7.05063227e-04 -1.14808569e-03
      -1.60681189e-03 -1.44097244e-03 -6.42072700e-04 3.86434869e-04
      8.47812800e-04 4.02390811e-04 4.14032256e-04 7.78028276e-04
      3.84355488e-04 1.72800894e-04 -4.23367273e-05 0. 0.
      -3.64417319e-05 6.73043614e-05 3.36176425e-04 -5.51868288e-04
      -1.01317896e-03 -1.00767543e-03 -1.22117868e-03 -1.85847934e-03
      -1.59010990e-03 -1.61135290e-03 -5.55789564e-04 7.39919604e-04
      -6.39171922e-05 5.53188322e-04 -2.35393643e-04 5.87972871e-04
      4.60524927e-04 0. 0. 0. -1.45062013e-05 -9.62136473e-05
      -2.19728798e-04 4.53928224e-05 3.53393960e-04 -3.80011741e-04
      1.93687025e-04 -1.24579598e-03 -2.24027922e-03 -7.13301270e-05
      -6.87896332e-04 -6.81209203e-04 -3.24217428e-04 7.51259271e-04
      2.11331891e-04 -1.98018490e-04 1.92720618e-05 0. 0. 0.
      3.54297663e-05 1.49801112e-04 5.45752991e-04 4.99631919e-04
      2.43641443e-05 1.41225290e-04 1.01730708e-04 -7.97367175e-05
      1.34783550e-04 3.87195323e-04 -1.38925773e-03 8.42419278e-04
      1.57802436e-03 5.83763409e-04 1.66885380e-04 -7.63024553e-04
      -8.71593307e-04 0. 0. 0. 1.19350414e-04 5.57491090e-04
      4.87554236e-04 3.33070551e-04 -1.66905869e-04 3.02789500e-04
      1.16934185e-03 1.79609400e-03 6.00366911e-04 1.77833499e-04
      -7.48598424e-04 5.73983707e-04 9.25524859e-04 1.00165117e-03
      7.36823131e-04 -5.07044140e-04 -1.30934105e-03 0. 0. 0.
      8.30130157e-05 1.51816243e-03 1.50929182e-03 -8.31592013e-04
      -5.74236503e-04 1.08080904e-03 7.70806277e-04 1.76436704e-04
      -1.19337835e-03 -8.57144129e-04 -7.99616624e-04 3.01029286e-05
      -2.21631533e-04 6.29368937e-04 1.10005739e-03 -2.24767471e-04
      -4.30328451e-04 0. 0. 0. -4.54912042e-05 -2.36967913e-04
      8.70367955e-07 -8.49581556e-05 1.66464865e-03 1.03204721e-03
      -1.39130175e-03 -2.09133653e-03 -1.33693859e-03 -5.42939466e-04
      -1.39638432e-03 5.31346188e-04 6.99338445e-04 6.46311499e-04
      2.91137258e-04 -1.73557753e-04 -2.37736390e-06 0. 0. 0.
      3.73537914e-05 2.80248671e-04 1.45577674e-03 1.07888214e-03
      7.48097722e-04 3.44285741e-04 -4.15513523e-06 -3.64678126e-04
      -5.85284608e-04 -9.27627843e-04 -1.90551078e-03 1.93019194e-04
      1.18825247e-03 1.03827845e-03 6.40415761e-04 -3.14428507e-05 0. 0.
      0. 0. 7.05923376e-05 -1.81365933e-04 -2.10230835e-04
      3.45762237e-04 2.98971456e-04 1.67802282e-04 -1.95307191e-04
      -3.86926928e-04 -5.10484504e-04 -5.45733143e-04 -1.29240076e-03
      -7.25382561e-05 1.10575638e-03 1.19026797e-03 1.13910902e-03
      1.61889839e-04 0. 0. 0. 0. 1.01298419e-05 -4.44074540e-05
      -1.55304719e-04 2.78865919e-04 8.22020447e-05 -2.28868274e-04
      -3.10987321e-04 -3.73534102e-04 -4.64517536e-04 -3.32851225e-04
      -3.54070042e-04 -1.09142980e-04 4.08152351e-04 6.55257725e-04
      6.28789829e-04 9.04856061e-05 0. 0. 0. 0. 0. 1.76692993e-04
      2.57631618e-04 2.81091161e-05 -3.08467774e-04 -2.40555702e-04
      -1.61548116e-04 -1.52304667e-04 -4.39808820e-04 -5.10620186e-04
      -4.15999617e-04 4.22031044e-05 1.32861620e-04 1.18793920e-04
      2.60512988e-05 -7.25822974e-05 -2.21203198e-04 0. 0. 0. 0.
      5.24953794e-05 8.72648816e-05 -1.91723484e-05 -1.22609024e-04
      -6.80076555e-05 -9.29342787e-06 -3.45629996e-06 -1.58989802e-04
      -2.04237323e-04 -1.98357331e-04 1.87569349e-05 1.06289299e-04
      1.24525206e-04 2.70933506e-05 -4.14755996e-05 -1.24426806e-04 0.
      0. 0. 0. 0. 0. 0. 0. 0. 0. 0. 0. 0. 0. 0. 1.45887270e-05
      6.46072222e-05 1.51097538e-05 0. 0. 0. 0. 0. 0. 0. 0. 0. 0. 0. 0.
      0. 0. 0. 0. 0. 0. 0. 0. 0. 0. 0.</_>
    <_>
      0. 0. 0. 0. 0. 0. 0. 0. 0. 0. 0. 0. -7.49370884e-07 0. 0. 0. 0. 0.
      0. 0. 0. 0. 0. 0. 0. 0. 0. 0. 0. 0. 0. 0. 0. -4.49622530e-05
      -9.21726169e-05 -2.99748353e-06 0. 0. 0. 0. 0. 0. 0. 0. 0. 0. 0.
      0. 0. 0. 0. 0. 0. -6.81927486e-05 -1.87342725e-04 -2.39798683e-05
      0. 0. 0. 0. 0. 0. 0. 0. 0. -1.00828092e-05 -4.22217636e-05
      -3.40294828e-05 -5.98666811e-05 1.57689592e-05 -8.14136365e-06
      -3.01889027e-04 -1.24038241e-04 -2.83708738e-04 -3.06195579e-04
      -2.14991553e-04 -8.38455492e-07 0. 0. 0. 0. 0. 0. 1.05115760e-04
      2.17970693e-04 6.75593255e-05 -1.12202004e-04 -1.70431915e-04
      2.12436717e-05 2.02566662e-04 -6.40298822e-04 -7.27634295e-04
      -6.15766447e-04 -7.91392231e-04 -3.64453008e-04 4.55205532e-04
      2.31919010e-04 0. 0. 0. 0. 0. 1.72485727e-06 3.10016912e-04
      5.06455312e-04 3.37577250e-04 -2.00883194e-04 -1.02870894e-04
      8.60701839e-04 1.06521893e-05 -1.10679015e-03 -3.52468109e-04
      -3.62673454e-04 -1.02535088e-03 -1.65243575e-03 6.92981877e-04
      3.51220573e-04 -5.94355442e-05 0. 0. 0. 0. 3.08010226e-06
      2.02755255e-04 3.80817772e-04 -1.22782600e-04 -2.44725525e-04
      7.13608097e-05 7.08554522e-04 -7.34780915e-04 -1.09871279e-03
      -2.36965483e-04 -8.96105048e-05 -5.23127499e-04 -8.60072498e-04
      -6.16107776e-04 -3.96478834e-04 -2.42473252e-04 -1.77883685e-05 0.
      0. 0. 6.92488857e-06 6.43236490e-05 -1.93071217e-04 2.69114622e-04
      5.18718385e-04 -1.32406087e-04 -2.72092613e-04 -1.50329585e-03
      -1.97200314e-03 -1.27267337e-03 -7.72575149e-04 5.56992563e-05
      1.10182373e-04 -1.39470329e-03 -1.47315953e-03 -6.20083243e-04
      -9.87254462e-05 0. 0. 0. 1.04052364e-04 2.94840778e-04
      -7.15610280e-04 3.51507733e-05 5.84225694e-04 1.94699227e-04
      5.40027168e-06 -1.18283660e-03 -1.04847702e-03 3.06368107e-04
      7.83569063e-04 6.20971958e-04 3.25984496e-04 -1.19256100e-03
      -1.09139387e-03 -4.45135607e-04 -1.76020563e-04 -6.50835455e-06 0.
      0. 3.01630673e-04 -1.48470470e-04 -4.71459498e-04 -3.46757239e-04
      8.96141210e-05 -3.57953570e-04 -2.01639356e-04 -1.24643513e-04
      5.06610202e-04 1.29450788e-03 6.16688281e-04 9.46148008e-04
      5.66619914e-04 -7.54691253e-04 -9.27555142e-04 -3.32884258e-04
      -3.91036534e-04 -4.98973823e-05 0. 0. 3.60844278e-04
      -5.95723570e-04 -1.95384564e-04 -2.69891374e-04 -3.84568324e-04
      -3.02575121e-04 8.38424254e-04 1.55396189e-03 1.79482379e-03
      1.03729474e-03 1.80632866e-04 5.63166221e-04 1.29186478e-03
      1.39931333e-04 -2.39716668e-04 -2.38183391e-04 -4.56179405e-04
      -2.16945136e-06 0. 0. 5.01300616e-04 1.60421459e-05 2.69410579e-04
      2.36118343e-04 1.31910536e-04 1.16211991e-03 1.48621551e-03
      1.62419362e-03 3.50072078e-04 -9.70393376e-05 -1.30193343e-03
      -8.92911630e-04 -2.97954102e-04 9.25838249e-04 7.60374824e-04
      -4.20968194e-04 -4.31106193e-04 0. 0. 0. 1.45110112e-04
      1.68723400e-05 -2.59321358e-04 -4.88084072e-04 6.04099187e-05
      1.14879536e-03 1.34220137e-03 5.33871411e-04 -6.52562478e-04
      -6.94158080e-04 -1.02617324e-03 -9.49810783e-04 -1.17617688e-04
      5.80992710e-05 6.20085775e-05 -2.10079979e-05 -2.61245266e-04 0.
      0. 0. 8.28803823e-05 3.20042600e-04 4.86869158e-06 1.80512347e-04
      -1.42503355e-04 4.45007085e-04 -3.57420831e-05 -7.62575597e-04
      -5.52165322e-04 -5.62751316e-04 -7.03600119e-04 -4.59183822e-04
      8.06016789e-04 1.61763324e-04 -2.36946129e-04 1.69984676e-04
      -5.30533362e-05 0. 0. 0. -6.68251669e-05 -4.41283744e-04
      -6.30347000e-04 8.21166177e-05 -6.84026803e-04 -6.08925999e-04
      -4.66136873e-04 -8.10565543e-04 -4.79618029e-04 -5.38913882e-04
      -5.17730776e-04 8.02390205e-05 1.87316342e-04 1.19314427e-04
      2.43647039e-04 2.45702307e-04 0. 0. 0. 0. -1.12266483e-04
      -1.10906153e-03 -4.42128396e-04 -5.16216423e-05 -1.56725559e-03
      -6.79895689e-04 -2.73709244e-04 -5.63867332e-04 -2.98892322e-04
      -3.09210765e-04 -4.41139506e-04 1.77172078e-05 3.30060022e-04
      2.47756718e-04 -3.87611835e-05 -1.06367486e-06 0. 0. 0. 0.
      -3.77501819e-05 -5.05845470e-04 -4.07015556e-04 -9.68369946e-04
      -1.43300986e-03 -5.15013351e-04 -2.16330911e-04 -2.54281011e-04
      -3.16436519e-04 -2.51701917e-04 -2.80462176e-04 -1.84790915e-05
      4.98370209e-04 3.04694957e-04 2.50088015e-05 0. 0. 0. 0. 0.
      -3.95739407e-05 -3.14300414e-04 -3.90482863e-04 -8.94600642e-04
      -1.07454031e-03 -3.04033863e-04 -1.11692993e-04 -2.07121320e-05
      -1.63201272e-04 -2.97372550e-04 -2.96056736e-04 9.65247527e-05
      6.09742536e-04 4.68424609e-04 1.15485731e-04 0. 0. 0. 0. 0.
      -2.29112284e-05 -1.13323797e-04 -1.44620193e-04 -1.98903581e-04
      -4.01479047e-04 3.30247021e-05 4.81344978e-05 0. 0. 0. 0.
      2.69115958e-06 8.83288158e-05 2.98517698e-04 6.91852401e-05 0. 0.
      0. 0. 0. 0. 0. -1.77883692e-06 0. 0. -2.04744083e-05
      -3.97126387e-05 0. 0. 0. 0. 0. 0. 0. 0. 0. 0. 0.</_>
    <_>
      0. 0. 0. 0. 0. 0. 0. 0. 0. 0. 0. 0. 0. 0. 0. 0. 0. 0. 0. 0. 0. 0.
      0. 0. 0. 0. 0. 0. 0. 0. 0. 0. 0. 0. 0. 0. 0. 0. 0. 0. 0. 0. 0. 0.
      0. 0. 0. 0. 0. 0. 0. 0. 0. 0. 0. 0. 0. 0. 0. 0. 0. 0. 0. 0. 0. 0.
      0. 0. -8.07179094e-06 -9.36398064e-05 -1.36461895e-04
      -1.37918541e-04 -6.94823393e-05 -4.53938192e-05 -2.66532516e-05
      -2.08228516e-06 7.06182755e-06 2.11854822e-05 0. 0. 0. 0. 0.
      6.99739612e-05 1.96587644e-04 8.42356822e-05 5.39804241e-05
      2.75314633e-05 -9.15423661e-05 -1.81498108e-04 -1.91723419e-04
      -2.67104944e-04 -2.69192504e-04 -2.69685243e-05 8.43365124e-05
      2.90907017e-04 4.44522389e-04 4.00170247e-04 0. 0. 0. 0.
      7.07801200e-06 2.49251985e-04 4.82490635e-04 4.46213002e-04
      1.17304982e-04 -1.67364808e-04 -3.88866720e-05 -8.29776473e-05
      -1.75226131e-04 -8.57796404e-05 -1.29565669e-04 -2.22221915e-05
      2.59988446e-04 3.85933876e-04 3.35903285e-04 1.74191751e-04 0. 0.
      0. 0. 8.98562394e-06 1.41112963e-04 2.58892920e-04 3.56100150e-04
      2.82064488e-04 -3.93418100e-04 -4.31884604e-04 -5.32461214e-04
      -5.50171477e-04 -6.67273009e-04 -3.59464786e-04 -8.31449113e-04
      -4.27570427e-04 -7.62704003e-05 -1.94977532e-04 -1.22860338e-05 0.
      0. 0. 0. -1.53108514e-04 -3.31844320e-04 -2.80462846e-05
      7.69167324e-04 8.65769514e-04 -1.82506428e-05 -3.38852755e-04
      -8.43190413e-04 -1.04064564e-03 -6.70345908e-04 -1.24475884e-03
      -1.82256999e-03 -7.36292568e-04 2.98410247e-04 3.40270562e-05
      -1.44916148e-05 0. 0. 0. -4.64355981e-05 -2.46799318e-04
      -3.83577535e-05 4.70392319e-04 4.53833694e-04 4.30440065e-04
      2.28337551e-04 4.97687317e-04 -6.28138310e-04 -7.94193416e-04
      -9.75586590e-04 -1.56738772e-03 -1.08014187e-03 1.40359853e-05
      1.13070928e-04 6.60171791e-05 6.21247382e-05 0. 0. 0.
      -1.52894514e-04 -1.04532694e-04 6.62114820e-04 7.12698326e-04
      6.59765501e-04 5.22066082e-04 5.71392535e-04 -2.27187120e-04
      -2.30228208e-04 1.59505697e-04 6.64894702e-04 3.21835869e-05
      4.83834046e-05 -1.02635240e-03 -1.44456455e-03 -3.29076865e-04
      -2.00957911e-05 0. 0. 0. -2.86529161e-04 -4.47584782e-04
      1.06366002e-04 3.34613665e-04 1.28183339e-04 5.74851992e-06
      4.63384611e-04 1.14704832e-03 6.31196192e-04 3.63460742e-04
      1.91742016e-04 -1.73685534e-04 4.41728116e-05 -3.26125184e-04
      -4.21752979e-04 -2.41566609e-04 1.09040404e-04 0. 0. 0.
      -1.92382613e-05 -2.89271557e-04 2.79685046e-04 9.68568900e-04
      1.16149453e-03 7.57457456e-04 1.50754023e-03 1.12989265e-03
      3.54772579e-04 8.46587587e-04 1.45792612e-04 -1.24209747e-03
      -8.43569578e-04 -4.36304865e-04 -3.09488212e-04 4.64046490e-04
      5.15944499e-04 0. 0. 0. 0. -2.87945237e-04 -4.81431372e-04
      5.19175883e-05 9.52978589e-05 5.95191435e-04 1.88565906e-03
      8.39057553e-04 1.02851496e-04 5.89343108e-06 -9.83935781e-04
      -1.29230600e-03 -6.83289894e-04 -8.00646376e-04 -4.54354478e-04
      6.08444854e-04 7.68946018e-04 0. 0. 0. 0. -5.93409641e-04
      -6.08415168e-04 5.29678247e-04 8.72380217e-04 5.97009377e-04
      6.50632370e-04 2.37593253e-04 -7.59714225e-04 -5.89449948e-04
      -1.40362186e-03 -8.35439831e-04 -6.77951961e-04 -3.96656251e-04
      -3.35936667e-04 3.29612289e-04 3.94733535e-04 0. 0. 0. 0.
      -1.84470700e-04 -1.33969865e-04 3.90454632e-04 1.92974694e-04
      -1.46307095e-04 -1.89612620e-04 -2.74684979e-04 -5.16705040e-04
      -7.12981098e-04 -1.05157960e-03 -8.71011405e-04 6.61251124e-06
      1.87636033e-05 7.47071172e-05 4.08778375e-04 2.17521098e-04 0. 0.
      0. 0. 2.36941542e-05 -7.07909276e-05 1.79053226e-04 3.50246955e-05
      -6.22464067e-05 -4.87081154e-04 -4.30185901e-04 -3.39375285e-04
      -1.96099238e-04 -4.49892425e-04 -4.47173457e-04 -1.42965844e-04
      5.80668675e-05 1.77817768e-04 9.95767041e-05 1.04774490e-05 0. 0.
      0. 0. -4.58102750e-06 1.17139156e-04 6.23804517e-05
      -1.78568371e-04 -6.28936687e-05 -1.51605549e-04 -1.57266564e-04
      -2.05062388e-04 -3.70490539e-04 -3.96063406e-04 -2.09581121e-04
      -3.28893511e-05 1.18504635e-04 1.20893565e-04 2.64609935e-05 0. 0.
      0. 0. 0. 0. -4.64196455e-05 -4.32246801e-04 -4.26771468e-04
      -1.73649951e-05 -1.56452461e-05 -1.34184011e-04 -1.77595590e-04
      -7.66034645e-05 -5.32271879e-05 -2.63418187e-05 1.85681365e-05
      1.19706347e-04 1.28335058e-04 2.75194325e-05 0. 0. 0. 0. 0. 0.
      -7.63003627e-05 -5.29179932e-04 -3.83963110e-04 0. 5.38287532e-05
      4.68831095e-05 8.25060306e-06 1.15508446e-04 2.06265086e-05 0.
      1.73578712e-07 1.62067863e-05 6.57968412e-05 1.53473757e-05 0. 0.
      0. 0. 0. 0. 0. -3.34737066e-04 -2.73204525e-04 0. 0. 0. 0.
      2.06265086e-05 4.12530153e-06 0. 0. 0. 0. 0. 0. 0. 0.</_>
    <_>
      0. 0. 0. 0. 0. 0. -3.27676535e-05 -1.52915709e-05 0. 0. 0. 0. 0.
      0. 0. 0. 0. 0. 0. 0. 0. 0. 0. 0. 0. 0. -4.80592244e-05
      -2.18451023e-05 -8.25642928e-05 -6.02233689e-04 -1.35988259e-04 0.
      0. 0. 0. 0. 0. 0. 0. 0. 0. 0. 0. 0. 0. 0. -2.12351588e-05
      -2.25846074e-04 -8.31541605e-04 -6.60514343e-04 -3.88537846e-05
      -1.64444427e-05 -4.93333282e-05 -4.52222157e-05 0. 0. 0. 0. 0. 0.
      0. 0. 0. 0. -3.54391159e-05 -1.90485254e-04 -2.12832325e-04
      -8.66708579e-04 -5.83865622e-04 3.54665535e-05 6.30330978e-05
      -2.98055529e-04 -4.58388851e-04 -2.54888873e-04 0. 0.
      1.00543293e-05 3.01629880e-05 0. 0. 0. 0. 0. 6.49890353e-05
      1.89255908e-04 -5.04827709e-04 -3.79183766e-04 -1.40148186e-04
      1.78424001e-04 4.50716267e-04 -1.50129863e-05 -5.22758637e-04
      -4.74833272e-04 -8.01666611e-05 6.64997879e-06 5.40885609e-04
      8.72645935e-04 3.67320667e-04 -1.11440488e-04 0. 0. 0.
      3.79102676e-05 4.82582749e-04 2.72624224e-04 -1.43582598e-04
      -5.58855652e-04 -7.72872823e-04 -2.34379360e-04 -1.06809959e-04
      -5.57248946e-04 -4.91000887e-04 -2.30222198e-04 -8.46238777e-07
      1.84462682e-04 1.07939902e-03 6.58866251e-04 -8.03099305e-04
      -5.18639281e-04 -1.18710923e-05 0. 0. 6.76969066e-05
      3.98607284e-04 -8.89924355e-04 -2.07853387e-03 -1.30591332e-03
      -1.47742324e-03 -9.21133382e-04 -6.47804292e-04 -9.52397299e-04
      -2.62184185e-04 4.70533560e-05 3.68161331e-04 -3.68923720e-05
      -3.79183388e-04 1.11256151e-04 -7.23605976e-04 -4.12242778e-04
      -9.83604768e-05 0. 0. 3.67054531e-06 -4.00630495e-04
      -1.30724569e-03 -2.73409486e-03 -2.65091681e-03 -1.55750092e-03
      -3.59286147e-04 -1.13188825e-03 -1.33623730e-03 -7.03789992e-04
      -3.69981397e-04 4.34365102e-05 -1.10223438e-04 2.36135977e-03
      2.63074762e-03 9.54673043e-04 -1.31851051e-03 -6.46394110e-05 0.
      0. 5.76572274e-05 -2.17935758e-05 -1.60634320e-03 -1.18126697e-03
      -1.10167987e-03 2.17195440e-04 1.17370812e-03 2.43115661e-04
      -2.69068230e-04 7.11463392e-04 -1.04993978e-03 -5.70824777e-04
      3.53993091e-04 -6.96214047e-05 -2.17544643e-04 -8.33848317e-04
      -2.41594086e-03 -4.74093569e-04 0. 0. 3.21823114e-04
      5.82260836e-04 -6.62795210e-04 -6.50886504e-04 -6.74550829e-04
      -8.14169325e-05 5.72475023e-04 7.24819838e-04 1.59854174e-03
      5.93311925e-05 -1.34967233e-03 1.20699893e-04 -3.04257410e-04
      2.52330210e-04 2.05888553e-03 6.71820017e-04 -1.72172164e-04
      -1.54468435e-04 0. 0. 2.90954398e-04 5.33128623e-04
      -6.68082444e-04 -4.11457964e-04 2.42384413e-04 5.14904013e-06
      1.34393922e-03 2.09723995e-03 9.62910766e-04 1.59873650e-03
      -3.52541480e-04 -2.35117637e-04 1.20959990e-03 1.36550271e-03
      7.19720498e-04 -1.45646383e-03 -2.65306211e-04 0. 0. 0.
      1.61648088e-04 2.10336829e-03 -7.95349188e-04 -1.16189034e-03
      -4.42489487e-04 -7.66013924e-04 7.66646699e-04 2.82577617e-04
      -1.83232958e-04 -3.82943253e-04 -1.38753513e-03 -2.27620098e-04
      2.17749519e-04 1.09766226e-03 -5.81331959e-04 -1.83244632e-03
      -1.65136546e-04 0. 0. 0. 9.39110760e-06 1.94857619e-03
      2.26616146e-04 -2.34253076e-03 -1.15496619e-03 -1.44336140e-03
      -5.03339514e-04 7.47674319e-04 3.89797962e-04 -5.38734967e-05
      5.23568015e-04 1.42624660e-03 3.25775996e-04 1.01933791e-03
      1.11902528e-03 5.65843773e-04 -3.46481320e-05 0. 0. 0.
      5.54164908e-05 1.21849764e-03 1.26282591e-03 -3.49415233e-04
      -1.01482030e-03 -1.86625530e-03 -1.06066000e-03 -9.27028770e-04
      -4.34092915e-04 -5.28661069e-04 -2.58600106e-04 2.44867952e-05
      7.13916786e-04 1.03887729e-03 7.42241798e-04 1.64171433e-04 0. 0.
      0. 0. 2.65999151e-05 6.72072405e-04 2.03424273e-03 -8.26597752e-05
      -5.61822439e-04 -1.13552506e-03 -1.61669694e-03 -8.18332948e-04
      -5.60613291e-04 -8.13282502e-04 -4.58033232e-04 -1.91542480e-04
      5.42376074e-04 9.78960539e-04 7.56577763e-04 1.02899299e-04 0. 0.
      0. 0. 0. -8.47788106e-05 2.08102560e-04 5.57880965e-04
      -2.24067844e-04 -1.03117654e-03 -6.29432732e-04 -6.46109751e-04
      -1.07489317e-03 -9.32395807e-04 -4.30925109e-04 -5.53743273e-04
      1.97936140e-04 6.54686475e-04 4.20801109e-04 4.87417747e-05 0. 0.
      0. 0. 0. 1.74401357e-04 4.42061137e-04 3.85659252e-04
      -3.31275223e-04 -5.24166622e-04 -4.17277741e-04 -2.36388863e-04
      -7.26599392e-05 -2.41844871e-04 -4.69768886e-04 -5.17487759e-04
      1.61972843e-04 3.01276043e-04 6.60693113e-05 0. 0. 0. 0. 0.
      -4.16578723e-06 1.03894738e-04 2.01086586e-04 2.19407666e-05
      -5.13888845e-05 -6.78333236e-05 -3.28888855e-05 0. 0.
      -2.47743519e-05 -2.61605339e-04 -3.98958247e-04 1.80964984e-04
      3.15811281e-04 6.87120773e-05 0. 0. 0. 0. 0. 0. 0. 0. 0. 0. 0. 0.
      0. 0. 0. 0. 0. 3.69988120e-05 1.63851888e-04 3.83201987e-05 0. 0.
      0. 0. 0. 0. 0. 0. 0. 0. 0. 0. 0. 0. 0. 1.22459787e-05
      5.59816144e-05 6.12298936e-06 0. 0. 0. 0. 0.</_>
    <_>
      0. 0. 0. 0. 0. 0. 0. 0. 0. 0. 0. 0. 0. 0. 0. 0. 0. 0. 0. 0. 0. 0.
      0. 0. 0. 0. 0. 0. 0. 0. 0. 0. 0. 0. 0. 0. 0. 0. 0. 0. 0. 0.
      5.81614540e-06 2.32645816e-05 0. 0. 0. 0. -7.00761884e-05
      -2.80304776e-05 0. 0. 0. 0. 0. 0. 0. 0. 0. 0. 0. 0. 2.32645816e-05
      6.39775972e-05 0. 0. -2.24243813e-05 -3.72805342e-04
      -7.02674268e-04 -3.33128584e-04 2.43386050e-04 0. 0.
      -7.63890712e-05 -3.35076707e-04 -3.45895678e-04 -2.94185826e-04
      -1.08423606e-04 0. 0. 0. 0. 0. 3.04506830e-04 1.26162940e-03
      3.68454057e-04 5.01285322e-05 -2.74409598e-04 1.91558574e-04
      1.24319654e-03 4.38456424e-04 0. -6.38364072e-05 3.55060271e-04
      5.10779391e-05 7.77962094e-04 4.91645944e-04 1.98114314e-04 0. 0.
      0. 0. 1.38664094e-04 1.34374248e-03 7.94490625e-04 6.34919619e-04
      -7.21844990e-05 -1.73900422e-04 1.91034214e-03 1.44604384e-03
      -4.23593447e-04 -9.75973035e-06 -6.93031121e-04 -8.76350794e-04
      -1.11845054e-03 1.84719032e-03 1.24941464e-03 -5.08181285e-04 0.
      0. 0. 0. -4.02562946e-05 -5.67835465e-04 1.50595835e-04
      3.64794578e-05 -1.15692685e-03 1.65927864e-03 2.08339747e-03
      -1.57185108e-03 -6.46936474e-04 -5.60695044e-05 -8.51245481e-04
      -2.18139403e-03 -1.81575376e-03 6.63543819e-04 1.10214890e-03
      -9.48781031e-04 0. 0. 0. 0. -1.49940990e-03 -2.30973703e-03
      8.90188909e-04 -4.97210596e-04 1.18763209e-03 -2.22415477e-03
      -1.34769210e-03 -4.51357476e-03 -1.84728217e-03 3.54318938e-04
      -2.55184388e-03 4.39471449e-04 1.10769237e-03 -3.49255919e-04
      1.60827607e-04 -8.90544441e-04 -9.78080425e-06 0. 0. 0.
      -2.09667441e-03 -9.22775012e-04 -2.50755670e-03 -9.67128901e-04
      3.42701300e-04 -1.33015146e-03 -9.92403016e-04 -2.22592778e-03
      5.76861086e-04 -3.14935867e-04 6.44053624e-04 -7.57965667e-04
      -1.28158892e-03 6.06846821e-04 -1.49458530e-03 -2.46129045e-03
      -1.26415689e-04 0. 0. 0. -4.78531816e-04 -9.71616595e-04
      -2.92065321e-03 2.10285634e-05 1.44538155e-03 5.31143050e-05
      -1.33246277e-03 1.22161655e-04 1.45878608e-03 4.13172929e-05
      1.59796129e-03 1.47004798e-03 6.37491292e-04 -2.60697235e-03
      -1.11005131e-04 -1.38205756e-03 -2.41510745e-04 0. 0. 0.
      3.65108164e-04 -2.27320287e-03 -2.50441488e-03 1.52994285e-03
      5.35454543e-04 2.76547903e-03 4.45569819e-03 -1.28156971e-03
      6.14755205e-04 2.43994989e-03 5.08995654e-05 1.67822558e-03
      4.80979043e-06 -5.21570582e-05 -1.24996214e-03 -2.89794477e-03
      -1.99063841e-04 0. 0. 0. -4.92606952e-04 8.29511613e-04
      -2.77813408e-03 -3.48782254e-04 2.51534232e-03 2.05488526e-03
      5.93427569e-04 -4.45074373e-04 -2.18205713e-03 -3.05682275e-04
      -2.28739833e-03 -1.07931322e-03 1.19330129e-03 8.67793686e-04
      5.94461337e-04 -3.75636644e-03 -2.48163182e-04 0. 0. 0.
      -5.38958178e-04 -2.78986758e-03 -2.22490984e-03 3.20537729e-05
      -2.49782497e-05 -1.45549292e-03 5.57711137e-05 1.20828953e-03
      2.28100852e-03 1.80113374e-03 -1.87084102e-03 -2.06311001e-03
      2.63915485e-04 1.91777566e-04 1.77042105e-03 7.61834614e-04
      -1.12394067e-04 0. 0. 0. 7.67973179e-05 -1.79738947e-03
      -2.13225489e-03 3.05669312e-03 -1.08008855e-03 -2.16833563e-04
      -7.12765541e-05 -8.05454270e-04 3.50926653e-04 -2.33883667e-03
      -1.97087112e-03 -3.74058902e-04 2.25715758e-03 6.81898964e-05
      1.74239991e-04 3.50652299e-05 -2.36156234e-06 0. 0. 0.
      1.28048341e-04 -1.42542110e-03 -1.55180052e-03 4.61231830e-04
      -1.70737412e-03 -1.73070631e-03 -2.41286820e-03 -2.86186929e-03
      -1.17460593e-04 -1.81580451e-03 -2.98928027e-03 6.19975472e-05
      8.35365965e-04 -7.66986457e-04 1.27987086e-03 2.83041678e-04 0. 0.
      0. 0. 3.29043862e-04 2.55373132e-04 -1.00163149e-03 1.79136486e-03
      -2.68492778e-03 -2.65240669e-03 -1.35965610e-03 -1.52069470e-03
      1.74279223e-04 -4.62997996e-04 -1.67619856e-03 -2.71948357e-03
      -1.71269418e-03 3.49918264e-04 9.54887597e-04 9.29783273e-05
      -8.62044253e-05 -5.74696169e-05 0. 0. 1.00445985e-04
      1.02908909e-03 4.65377292e-04 -1.63062738e-04 -2.44612433e-03
      -1.89196749e-03 -1.70165394e-03 -7.93403189e-04 -3.26026793e-06
      -7.18370211e-06 -2.97766528e-04 -2.40848080e-04 7.97290180e-04
      8.89273477e-04 1.76744958e-04 0. -1.07755535e-04 -7.90207268e-05
      0. 0. 0. 1.61013406e-04 -2.25791198e-04 -1.03344908e-03
      -1.75001693e-03 -1.54434855e-03 -1.09989464e-03 -1.41172306e-04
      2.01771491e-05 4.03542981e-06 0. 2.51321122e-04 1.25638733e-03
      1.38439459e-03 2.97506369e-04 0. -1.43674042e-05 -7.18370211e-06
      0. 0. 0. -2.51522928e-04 -4.36466245e-04 -2.24245050e-05
      -3.66716791e-04 1.08040309e-04 5.25795156e-04 8.07085962e-06
      1.12992035e-04 2.01771491e-05 0. 1.85743693e-06 1.75055233e-04
      7.11295696e-04 1.65917008e-04 0. 0. 0. 0. 0. 0. -5.17841327e-05
      -1.84943328e-05 0. 0. 0. 0. 0. 2.01771491e-05 4.03542981e-06
      1.34215326e-04 6.13555778e-04 6.71076632e-05 0. 0. 0. 0. 0.</_>
    <_>
      0. 0. 0. 0. 0. 0. 0. 0. 0. 0. 0. 0. 0. 0. 0. 0. 0. 0. 0. 0. 0. 0.
      0. 0. 0. 0. 0. 0. 0. 0. 0. 0. 0. 0. 0. 0. 0. 0. 0. 0. 0. 0. 0. 0.
      0. 0. 0. 0. -7.82307325e-06 -6.35859033e-05 -6.95751733e-05
      -2.40320169e-05 -2.11093635e-07 0. 0. 0. 0. 0. 0. 0. 0. 0. 0. 0.
      0. -1.32686228e-05 -2.81958237e-05 -1.16402161e-05 -5.67311181e-05
      -9.65161817e-05 -4.81623611e-05 -1.98078531e-04 1.56933049e-04
      -2.09696464e-05 -2.11093635e-07 -1.48747175e-04 -9.87389940e-04
      -1.03052810e-03 0. 0. 0. 0. 0. 8.41176297e-05 3.31259420e-04
      -3.62908868e-05 1.18483549e-05 1.12127229e-04 1.90751773e-04
      5.35353436e-04 -1.57885384e-04 -1.81002106e-04 8.12240003e-04
      -5.07003933e-05 -2.00288821e-04 7.50440347e-04 -1.21280318e-03
      -1.78717670e-03 0. 0. 0. 0. 4.90686180e-05 6.37892052e-04
      7.15458125e-04 3.59503465e-04 3.67783177e-05 -3.92998336e-04
      5.98825980e-04 3.41409788e-04 -7.94965075e-04 3.26520996e-04
      6.55097829e-04 -4.83063166e-04 7.30315733e-05 1.24387362e-03
      -3.96831165e-04 -1.48834719e-03 8.84964902e-05 0. 0. 0.
      8.76225313e-05 7.59210554e-04 4.65725723e-04 -7.66516896e-05
      -3.30762239e-04 -4.60123149e-04 7.90950944e-05 -1.44814840e-03
      -1.05216517e-03 7.17389106e-04 -5.73790225e-04 -2.39512650e-04
      2.73289566e-04 4.92367428e-04 7.23517733e-04 -6.80332014e-05
      3.76146600e-05 0. 0. 0. -3.37581560e-06 2.55895953e-04
      3.47295339e-04 -8.96482321e-04 -1.45776395e-03 -5.70548873e-04
      -2.11256425e-04 -1.23166002e-03 -9.85093298e-04 -4.16037103e-04
      -7.16127339e-04 1.01177569e-03 7.18322524e-04 7.73792446e-04
      1.77557406e-03 1.90279679e-04 -5.06015145e-04 0. 0. 0.
      -4.61497111e-05 -3.48765752e-04 2.36859501e-04 -1.16672731e-04
      -3.24670254e-05 -2.79214903e-04 -9.37349745e-04 -6.77455857e-04
      -3.82041180e-04 1.25899678e-03 7.39317387e-04 4.42674034e-04
      3.66706547e-04 -8.07001852e-05 9.19832382e-04 6.33095740e-04
      -2.98228988e-04 0. 0. 0. 1.12990936e-04 -2.60335422e-04
      -9.36542492e-05 -2.15440849e-03 -2.32303306e-03 -1.27418165e-03
      -6.52944087e-04 3.81807622e-04 6.83723134e-04 8.22276925e-04
      1.41816877e-03 1.73352857e-03 1.13988586e-03 -5.85245376e-04
      3.10573378e-04 -4.94997948e-05 -9.92829329e-04 3.41738360e-06 0.
      0. 5.58443950e-04 7.61445262e-04 -4.66615398e-04 -5.11572231e-04
      -4.94720822e-04 3.38376296e-04 4.70050552e-04 1.14924030e-03
      1.96625851e-03 1.49234384e-03 5.36362466e-04 1.02965033e-03
      1.24382635e-03 1.39327254e-03 2.47458462e-04 -5.24327006e-05
      -7.42340053e-04 -5.78029067e-05 0. 0. 6.47048524e-04
      2.19997438e-03 4.46495193e-04 -1.39499607e-03 -2.50319601e-04
      -4.78524278e-04 -2.77182495e-04 -3.01750726e-04 -8.50157754e-04
      -8.49937031e-04 -3.85701744e-04 1.11081486e-03 1.81819848e-03
      1.75906450e-03 5.23366441e-04 -3.00955639e-04 -1.14998443e-03
      -3.10690608e-04 0. 0. 2.11694321e-04 8.86420719e-04
      -4.16189461e-04 -2.70329812e-03 -8.62399291e-04 2.98881554e-04
      -1.15453650e-03 -1.56869495e-03 -1.33332482e-03 -5.09017322e-04
      -1.31578592e-04 4.58875293e-04 9.54264775e-04 8.02155992e-04
      4.24445403e-04 2.89557269e-04 -5.30384190e-04 -9.18460355e-05 0.
      0. 1.20924095e-04 3.25885107e-04 1.92069798e-04 5.39262022e-04
      -2.63898080e-04 -1.75089910e-04 -6.55682234e-04 -1.54396228e-03
      -1.11832004e-03 -5.46001596e-04 -3.44248780e-04 8.64493268e-05
      7.83327443e-04 4.21658013e-04 1.78273360e-04 -3.26600741e-04
      -4.30308661e-04 -4.03964332e-05 0. 0. 5.80435662e-05
      2.74308521e-04 3.16956459e-04 -1.48580075e-04 -8.18496512e-04
      -9.97901545e-04 -1.05979340e-03 -1.17784739e-03 -1.14754657e-03
      -9.09504830e-04 -6.97040407e-04 3.74677329e-04 1.18496362e-03
      7.17345101e-04 4.15983581e-04 -1.47439539e-04 -7.36011716e-05 0.
      0. 0. 0. 3.11588316e-04 1.01015402e-03 1.27583777e-03
      -7.30632601e-05 -5.01823321e-04 -4.29238542e-04 -2.95914942e-04
      -1.81210053e-04 -1.50792344e-04 -1.08297427e-04 3.70185327e-04
      8.99366802e-04 7.64894241e-04 3.87662847e-04 -1.83288375e-05 0. 0.
      0. 0. 0. 3.71472270e-05 2.07621197e-05 1.38277857e-04
      6.74971961e-05 -6.32454976e-05 -1.88143295e-05 -3.16640467e-06
      -1.48967511e-05 -1.83862812e-05 -1.97025547e-05 1.90774022e-04
      6.35711767e-04 5.89867646e-04 1.02308753e-04 -1.24589687e-05 0. 0.
      0. 0. 0. 2.05499464e-06 3.92656057e-06 5.83899237e-07 0. 0. 0. 0.
      0. 0. 0. 9.86961386e-05 5.59278124e-04 6.55232696e-04
      1.42561097e-04 -1.14408969e-07 -3.43226901e-07 0. 0. 0. 0. 0. 0.
      0. 0. 0. 0. 0. 0. 0. 0. 0. 7.67636666e-05 3.39953374e-04
      7.95052256e-05 0. 0. 0. 0. 0. 0. 0. 0. 0. 0. 0. 0. 0. 0. 0. 0. 0.
      0. 0. 0. 0. 0. 0.</_>
    <_>
      0. 0. 0. 0. 0. 0. 0. 0. 0. 0. 0. 0. 0. 0. 0. 0. 0. 0. 0. 0. 0. 0.
      0. 0. 1.66053778e-05 1.49448402e-04 2.95206719e-05 0. 0. 0. 0.
      -5.92501710e-05 -8.97729915e-05 1.96384553e-05 1.84299337e-04
      1.19341377e-04 0. 0. 0. 0. 0. 0. 0. 0. -3.05525144e-04
      -1.26510300e-03 -1.80715334e-03 -1.64243148e-03 -4.19892458e-04 0.
      2.97979077e-05 8.45449220e-04 1.76441055e-04 -2.95506977e-03
      -2.02923547e-03 1.81461603e-03 -6.33467629e-04 -1.18215184e-03 0.
      0. 0. 0. 7.93053186e-05 5.87095448e-04 -5.91240998e-04
      -5.23840368e-04 2.64983264e-05 1.44299949e-04 1.89509970e-04
      7.03961705e-05 1.16180780e-03 2.23216112e-03 -2.47452105e-03
      -3.44955805e-03 -1.71345205e-03 1.12539499e-04 -9.53416515e-04
      -2.30550766e-03 0. 0. 0. 0. 1.19203825e-04 -6.77509379e-05
      -2.16403278e-03 -1.00591930e-03 2.60671339e-04 5.24330826e-04
      7.38052186e-04 -1.65547332e-04 1.38599740e-03 3.47898691e-03
      -5.38853405e-04 -1.40555121e-03 -1.50518981e-03 1.15341754e-04
      8.88941344e-04 -2.04229401e-03 0. 0. 0. 0. 2.33643033e-04
      -6.36657234e-04 -1.26617518e-03 -6.83042628e-04 -1.93277525e-03
      -1.21117977e-04 -4.76756075e-04 -2.21773633e-04 3.19797150e-03
      3.91051685e-03 8.00993526e-04 1.39361911e-03 1.66828278e-03
      8.79334460e-04 2.13276246e-03 -1.71410700e-03 0. 0. 0. 0.
      3.62405641e-04 4.30728505e-05 8.49742792e-05 -2.19211145e-03
      -7.92676947e-05 6.54465228e-04 -1.73876342e-05 1.06539507e-03
      -7.36099260e-04 2.24811584e-03 2.69239536e-04 -1.78925166e-05
      4.69140738e-04 -2.47407239e-03 2.72397388e-04 -1.32831233e-03 0.
      0. 0. 0. 4.43877274e-04 -1.51329720e-03 -4.12299443e-04
      7.18166775e-05 1.26709987e-03 -2.58972315e-04 -1.29568472e-03
      3.38518090e-04 -1.06819277e-03 6.22324820e-04 2.42883945e-03
      1.31506682e-03 3.84518038e-03 4.37988376e-04 -2.08077210e-04
      -1.71306997e-03 -4.70641215e-04 -3.28560855e-04 0. 0.
      1.16212573e-03 -3.83866049e-04 1.43392885e-03 1.87706144e-03
      -4.20442695e-04 -7.05139013e-04 -1.75341510e-03 -2.25120806e-03
      -6.85607898e-04 1.45824347e-03 2.78099254e-03 1.44406839e-03
      3.72277666e-03 2.43568490e-03 3.30846594e-03 -1.97535986e-03
      -1.53624394e-03 -6.74881740e-04 0. 0. 9.11904033e-04
      9.86780273e-04 -1.42971554e-03 1.45989135e-04 -2.15912936e-03
      -6.09571580e-04 -2.08747061e-03 -1.49570464e-03 -2.99462443e-03
      5.55979786e-04 1.79184997e-03 1.57092384e-03 1.27936248e-03
      1.07807410e-03 9.69068555e-04 -3.82029940e-03 -2.26440583e-03
      -6.48241665e-04 0. 0. -1.36232888e-03 5.03612333e-04
      7.23278325e-04 -3.98961082e-03 7.80277420e-04 1.75837253e-04
      -2.39314698e-03 -1.77800679e-03 7.01899931e-04 2.32268637e-03
      3.19937710e-03 -2.09917751e-04 1.27541507e-03 -2.68331147e-03
      -3.72369890e-03 -2.38682423e-03 -2.26440583e-03 -6.12721546e-04 0.
      0. -1.90318981e-03 -2.87964911e-04 8.84241250e-04 8.11198086e-04
      -1.03431032e-03 -2.81599094e-03 -1.57830084e-03 -1.70480099e-03
      -1.24266965e-03 -1.20434433e-03 -1.36421435e-03 -7.51104148e-04
      1.11614529e-03 -1.47309108e-03 8.31913727e-04 -6.42554543e-04
      -1.29230844e-03 -1.63369274e-04 0. 0. -2.67700432e-03
      -1.78875591e-04 -1.07745233e-03 -3.24920635e-03 1.98615994e-03
      2.20128219e-04 -2.85555981e-03 -1.72378344e-03 -9.02076892e-04
      9.43676045e-04 -1.97058707e-03 3.28779774e-04 -2.25994480e-03
      -2.37803717e-04 2.65803002e-03 -1.10240118e-03 -2.23659328e-04
      -4.94041378e-05 0. 0. -1.27086753e-03 1.01369235e-03
      -1.50176149e-03 -9.75611736e-04 1.90589949e-03 -1.25390373e-03
      -3.81708005e-03 -5.55638748e-04 3.59578000e-04 1.62140164e-03
      -1.70076522e-03 7.13494141e-04 5.72984980e-04 -1.34275848e-04
      -1.29176551e-04 -9.03074746e-04 -1.47910707e-03 -8.70453878e-05 0.
      0. -9.94926319e-04 3.58151825e-04 2.64909322e-04 1.41703442e-03
      6.56336197e-04 1.28217926e-03 1.70410937e-03 1.09789544e-03
      -2.49185890e-04 -1.12609832e-05 5.21519920e-04 -9.59684025e-04
      2.04398646e-03 1.41481811e-03 9.26196866e-04 3.93754430e-03
      -5.72953664e-04 -7.99876507e-05 0. 0. -5.39404922e-04
      -1.64948753e-03 -7.76827976e-04 7.31856679e-04 -1.43815484e-03
      9.49000183e-04 1.09967880e-03 -1.17182452e-03 -9.34484531e-04
      1.75303523e-03 8.32932128e-04 4.87270037e-04 6.45236578e-05
      -1.16186461e-03 1.90111657e-03 2.75028939e-03 -1.89382539e-04
      -3.52886696e-06 0. 0. 3.49800066e-05 -2.85224552e-04
      -8.67408875e-04 -4.28843283e-04 1.77000606e-04 -2.65143346e-04
      3.72020382e-04 1.25462748e-03 -1.00965134e-03 -1.54575903e-03
      2.92180455e-03 3.39697651e-03 1.83087867e-03 1.46000262e-03
      9.85436840e-04 4.44295001e-04 -4.23464044e-05 0. 0. 0. 0.
      -1.83357297e-05 -1.68182669e-04 -4.30864711e-05 1.09971108e-04
      -6.08908122e-05 5.69253287e-04 1.83018681e-03 5.30042802e-04
      -1.45533041e-03 4.21283388e-04 8.99986539e-04 6.59767888e-04
      2.25290819e-03 5.80977416e-04 1.47541313e-08 0. 0. 0. 0. 0. 0. 0.
      0. 0. 4.05041537e-05 2.73403042e-04 5.73808829e-05 0.
      1.78999573e-04 3.33590113e-04 3.52574898e-05 7.47586455e-05
      7.38241593e-04 3.59775964e-04 0. 0. 0. 0. 0. 0. 0. 0. 0. 0. 0. 0.
      0. 2.71211479e-06 0. 0. 0. 0. 9.34483069e-06 1.86896614e-05 0. 0.
      0.</_>
    <_>
      0. 0. 0. 0. 0. 0. 0. 0. 0. 0. 0. 0. 0. 0. 0. 0. 0. 0. 0. 0. 0. 0.
      0. 0. 0. 0. 0. 0. 0. 0. 0. 0. 0. 0. 0. 0. 0. 0. 0. 0. 0. 0.
      -1.25688450e-06 -1.00550760e-05 -3.64496518e-05 -3.40209408e-05
      -1.12715185e-04 -1.64855199e-04 -9.70671652e-04 1.48462117e-04
      1.02176808e-03 1.13453041e-03 6.35342149e-04 3.65312851e-04
      6.74242619e-05 5.17704611e-05 0. 0. 0. 0. 0. 0. 0. -6.81622769e-05
      -1.83119788e-04 -2.96448910e-04 -6.96573232e-04 -1.01166696e-03
      -2.98775325e-04 -5.05313685e-04 -5.29188721e-04 3.25951434e-04
      6.85362611e-04 6.28838825e-05 5.71698649e-04 5.51185745e-04
      1.49545795e-05 0. 0. 0. 0. 0. 0. 3.61099286e-04 6.61141414e-04
      1.73337336e-04 8.55825143e-04 -4.73314372e-04 -8.99381645e-04
      -1.00608042e-03 -1.47018663e-03 -4.73238673e-04 1.48636394e-03
      -7.62729847e-04 -1.51668780e-06 2.16399343e-03 2.08906466e-04
      -9.26631095e-04 0. 0. 0. 0. 3.68526162e-05 4.59708623e-04
      -2.41440066e-04 2.16821543e-04 1.14878807e-04 -1.15494593e-03
      -2.50343140e-03 -1.92658964e-03 2.06704927e-03 8.25144176e-04
      -1.19355461e-03 2.71308678e-03 1.20984309e-03 1.88453123e-03
      -3.76580720e-04 -1.40693469e-03 0. 0. 0. 0. 7.88841862e-05
      2.64404865e-04 -9.34162294e-04 -3.71215807e-04 8.88398790e-04
      2.67179305e-04 -2.91220192e-03 -1.71764730e-03 -2.69500713e-04
      2.95599923e-04 -1.14609534e-03 2.01043813e-03 1.39083515e-03
      9.96223185e-04 -3.42953572e-04 -1.24121842e-04 0. 0. 0. 0.
      3.20232270e-04 7.96773995e-04 4.20135941e-04 8.82744353e-05
      1.25174783e-03 -3.74741066e-04 -5.10075456e-03 -1.73867319e-03
      -9.49446112e-04 -1.22135179e-03 1.31447881e-03 4.34746238e-04
      8.20618880e-04 4.44687437e-04 -2.25372636e-03 -6.06504444e-04 0.
      0. 0. 4.16060531e-04 7.55458197e-04 -5.47682343e-04 7.32213317e-04
      3.87046672e-03 -1.24194354e-04 1.88468699e-03 -2.04028608e-03
      -1.92721421e-03 -6.77019183e-04 5.12944069e-04 2.18642922e-03
      -4.03100596e-04 1.68515625e-03 2.20153038e-03 -1.22628844e-04
      -1.45867642e-03 0. 0. 0. 1.41460577e-03 2.73522781e-03
      2.20089220e-03 1.06319749e-04 1.48082851e-04 1.15248531e-05
      -7.98869223e-05 -1.77226344e-03 1.71261418e-04 2.92272540e-04
      2.05704500e-03 -1.65190746e-03 -8.51884310e-04 1.79233542e-03
      1.57916674e-03 -4.56813432e-04 -3.83552455e-04 -7.98916972e-06 0.
      1.58674648e-05 2.57960433e-04 2.43947632e-03 2.07741535e-03
      -1.01370933e-05 1.90339924e-03 2.10806634e-03 2.99845706e-04
      -8.38307897e-04 -3.35287827e-04 8.64840986e-04 1.58906425e-03
      -1.19052269e-03 4.17895295e-04 1.03761023e-03 -1.18768180e-03
      -8.27621727e-04 2.64368457e-04 -2.15230932e-04 0. 1.31725028e-04
      -2.81673390e-04 2.46130367e-04 1.75416842e-03 3.83643282e-06
      1.54647394e-03 -1.54433202e-03 -4.24480386e-04 -4.81262214e-05
      7.60006777e-04 -1.38723140e-03 -1.07322249e-03 -3.30922077e-04
      -1.10842544e-03 -7.13644040e-05 -1.31307717e-03 3.15762096e-04
      -1.83395721e-04 -2.35697269e-04 0. 2.80550830e-05 -1.39076641e-04
      9.21109517e-04 9.97772440e-04 1.34505884e-04 -3.19893094e-04
      1.41113764e-03 -2.20023212e-04 -1.52086571e-03 -1.04266728e-04
      -1.01402937e-03 -4.46024671e-04 1.44733611e-04 4.78454982e-04
      -1.25011872e-03 -2.82522728e-04 1.11016224e-03 1.33530330e-03
      1.86350706e-04 0. 0. 0. 9.30611801e-04 1.53144612e-03
      1.22062839e-03 1.03826518e-03 7.19234522e-04 -1.25975115e-03
      -3.28024063e-04 -1.66385551e-04 -2.51650694e-04 -5.73263038e-04
      -1.12050679e-03 4.96729153e-05 5.98449144e-04 1.54182228e-04
      -6.32775947e-04 2.34234985e-03 1.71922869e-03 0. 0. 0.
      7.34845409e-04 -1.78756437e-03 -1.70566223e-03 8.76533886e-05
      -2.88723231e-06 2.66443181e-04 9.25305532e-04 -1.46170636e-03
      -7.69699109e-04 3.48209782e-04 -3.92824615e-04 3.53153358e-04
      3.79573787e-04 -2.84494075e-04 -6.38373254e-04 1.51673320e-03
      1.08744414e-03 0. 0. 0. -1.17709649e-04 -1.25339278e-03
      -3.23618238e-04 -3.85478255e-04 1.35876136e-04 4.29497508e-04
      4.36534057e-04 4.29096923e-04 -1.31025619e-03 -1.48871448e-03
      9.34510550e-04 1.87929615e-03 3.32091149e-04 -5.06503682e-04
      1.00363119e-04 1.83753960e-04 0. 0. 0. 0. -9.83388018e-05
      -2.16130400e-04 -4.00954304e-04 4.11629699e-05 2.31804534e-05
      -4.02137404e-04 1.21059292e-03 1.10838551e-03 5.14686864e-04
      -3.83655337e-04 -4.14791662e-04 2.33747996e-03 6.38384547e-04
      6.70994108e-04 6.89977896e-04 -2.44036364e-05 0. 0. 0. 0.
      -1.14261002e-05 -4.57073220e-05 -1.79813869e-04 -3.46989225e-04
      -1.00549245e-04 4.13576054e-04 1.61403720e-03 1.13324611e-03
      2.16334197e-03 4.09566564e-03 1.19390595e-03 5.84118592e-04
      -3.18731734e-04 -1.47155341e-04 -7.40080868e-05 -2.26829798e-05 0.
      0. 0. 0. 0. 0. -1.47799641e-04 -1.62446449e-04 -7.98916972e-06
      1.85016092e-04 2.17334460e-03 2.72237859e-03 1.11268344e-03
      3.19590443e-03 1.94912986e-03 4.70958512e-05 0. 0. 0. 0. 0. 0. 0.
      0. 0. -1.33152832e-06 0. 0. 0. 0. 3.46815155e-04 4.43152676e-04
      1.33554058e-04 4.97104425e-04 5.36119333e-04 4.70958512e-05 0. 0.
      0. 0. 0. 0.</_>
    <_>
      0. 0. 0. 0. 0. 0. 0. 0. 0. 0. 0. 0. -3.87092132e-06 0. 0. 0. 0. 0.
      0. 0. 0. 0. 0. 0. 0. 0. 0. 0. 0. 0. 0. 0. 0. -2.32255275e-04
      -4.76123299e-04 -1.54836853e-05 0. 0. 0. 0. 0. 0. 0. 0. 0. 0.
      1.58882267e-05 1.50491629e-04 1.66310478e-04 3.09590250e-04
      4.21367935e-04 3.76275653e-04 1.93165572e-04 -1.98450274e-04
      -5.46936470e-04 5.68998112e-05 -2.45269548e-05 -5.46018964e-05 0.
      0. 0. 0. 0. 3.34496872e-05 7.73270367e-05 -1.25818668e-04
      1.98721842e-04 9.96947521e-04 1.04142481e-03 2.66496791e-04
      2.66767893e-04 4.41165816e-04 7.81360955e-04 7.10142020e-04
      9.16933059e-04 2.34549108e-04 -6.80892321e-04 -8.78245512e-04 0.
      0. 0. 0. 0. 2.17764493e-04 3.01200052e-04 -6.72748065e-05
      9.23492407e-05 -4.28124564e-04 -1.13262469e-03 -1.36656826e-03
      -3.95787756e-05 6.07627211e-04 7.89795246e-04 -1.06765924e-03
      -1.49831816e-03 1.08266401e-03 2.01286050e-03 2.46758951e-04 0. 0.
      0. 0. 1.02483202e-04 1.28403452e-04 1.34588438e-04 3.76554031e-04
      9.52324364e-04 -6.74676383e-04 -1.72683992e-03 -1.13303587e-03
      1.86014234e-03 2.27863062e-03 -4.36531467e-04 -1.10676943e-03
      -1.84188026e-03 1.06138363e-03 2.59098993e-03 9.10774863e-04
      -2.77191430e-05 0. 0. 2.04092328e-04 8.84101435e-04 6.03260123e-04
      4.54294466e-04 -3.75720585e-04 8.05884774e-04 3.01559514e-04
      -5.30431163e-04 -1.07759412e-03 -7.93102605e-04 1.30535697e-03
      1.04188186e-03 1.19895290e-03 -1.56265582e-04 -3.93504422e-04
      -9.50292742e-05 -8.33359198e-04 -4.78785187e-05 0. 0.
      2.67587719e-04 1.09453185e-03 7.38594099e-04 4.33481837e-08
      8.67528724e-04 1.03458203e-03 -2.26333016e-03 -1.17728254e-03
      -1.53004227e-03 -2.58075912e-03 1.20187970e-03 2.09157355e-03
      5.55758248e-04 6.78584154e-04 2.19564870e-04 -4.86165285e-04
      -8.11177772e-04 -2.07893572e-05 0. 0. 1.15617819e-04
      2.47765478e-04 -4.85783617e-04 6.29050483e-04 1.45781937e-03
      -1.43506238e-03 -1.87319331e-03 -1.01599540e-03 -1.41046278e-03
      -1.22660748e-03 1.79295277e-03 1.28644798e-03 1.62065565e-03
      2.08112202e-03 9.54384508e-04 5.80749416e-04 -1.12241658e-03 0. 0.
      0. 3.62605177e-04 -3.15334328e-04 8.79076251e-04 -1.65938435e-03
      -7.07480358e-04 6.97219279e-04 4.66153142e-04 -5.40310924e-04
      -9.90020228e-04 2.32782855e-04 -2.59823661e-04 2.11703801e-03
      1.65270071e-03 1.09513130e-04 4.03776037e-04 1.24061434e-03
      -1.41474220e-03 0. 0. 0. 3.69917776e-04 5.83003100e-04
      6.56698947e-04 -3.68973211e-04 -1.92682864e-03 -5.83452464e-04
      -9.26833542e-04 -6.68353634e-04 -1.10383669e-03 2.09015678e-03
      8.07927689e-04 1.30057184e-03 -7.32987770e-04 1.51179405e-03
      -1.43755192e-03 -1.69150135e-03 -1.40265294e-03 0. 0. 0.
      3.69917761e-05 5.55650564e-04 1.51497114e-03 -8.73404555e-04
      2.08436701e-04 3.87164546e-05 2.93360266e-04 -7.87831377e-04
      -7.42042248e-05 9.99605516e-04 2.86194321e-04 -4.87924495e-04
      1.15017901e-04 1.16964243e-03 2.52006896e-04 -1.07260933e-03
      -6.48793764e-04 0. 0. 0. 0. -3.15508427e-04 2.03531701e-03
      5.15330699e-04 1.55011914e-03 1.18666736e-03 1.79438968e-04
      -2.53003236e-04 -3.93605333e-05 -6.88771834e-04 3.46004061e-04
      -1.04012259e-03 6.17317681e-04 -6.92482630e-04 5.26615710e-04
      1.84699718e-03 4.95934859e-04 9.09396331e-05 0. 0. 0.
      -5.65881375e-04 -3.82626546e-04 1.51052445e-04 1.86675391e-03
      1.37531315e-03 -8.68071147e-05 -7.66722296e-05 1.81922369e-04
      -1.59148732e-03 -1.38712290e-03 5.33232815e-04 -1.19317323e-03
      1.51733251e-03 -8.37038562e-04 -1.21631287e-03 1.30335009e-03
      4.96670313e-04 0. 0. 0. -3.08285089e-04 3.18013685e-04
      -1.44904456e-03 -2.24965671e-03 1.42785357e-04 2.67111254e-03
      3.44044296e-03 9.06893518e-04 -4.72919928e-04 -4.71403997e-04
      3.91255569e-04 -2.25281157e-03 1.86234608e-03 -8.82548571e-04
      -1.14962377e-03 1.76793232e-03 3.07795679e-04 0. 0. 0.
      -3.80017678e-04 -4.36997070e-05 -1.33493240e-03 -1.60823658e-03
      -7.38385774e-04 2.27708695e-03 2.65102275e-03 -9.19441110e-04
      -1.44068757e-03 -6.09685703e-05 5.19859459e-05 9.03752050e-04
      1.93054532e-03 -6.65546613e-05 -7.15426868e-05 8.60046712e-04 0.
      0. 0. 0. -1.98695634e-04 -1.81086082e-03 -3.01195146e-03
      -1.49149669e-03 -2.05901638e-03 -1.10619864e-03 5.58926491e-04
      4.64306679e-04 -9.86298255e-05 6.32041250e-04 1.54055818e-03
      1.39351853e-03 -8.23052600e-04 -5.51735924e-04 -3.97267795e-05
      5.66621020e-05 0. 0. 0. 0. -1.36333925e-04 -1.08037970e-03
      -2.96183117e-03 -2.09206506e-03 -3.62821762e-03 -2.18185922e-03
      8.09002027e-04 1.40404934e-03 5.58356754e-04 1.19406777e-03
      1.83507637e-03 7.70714832e-04 -1.21655362e-03 -9.76852840e-04
      4.15609975e-05 4.19719299e-06 0. 0. 0. 0. -7.89301703e-05
      -3.87475360e-04 -5.40081710e-05 -1.96163382e-04 -1.48940925e-03
      -1.49749091e-03 1.42951307e-04 7.26130675e-04 5.62513189e-04
      1.41056767e-03 1.78857299e-03 6.02057553e-04 9.44371932e-05 0. 0.
      0. 0. 0. 0. 0. 0. 0. -1.25996110e-06 -4.63934230e-05
      -2.32263497e-04 -3.17499042e-04 3.73086749e-07 1.08428489e-04
      6.18169361e-05 2.51683232e-04 3.00253683e-04 2.64929713e-05 0. 0.
      0. 0. 0. 0.</_>
    <_>
      0. 0. 0. 0. 0. 0. 0. 0. 0. 0. 0. 0. 0. 0. 0. 0. 0. 0. 0. 0. 0. 0.
      0. 0. 1.51539334e-05 1.36385395e-04 2.69403263e-05 0. 0. 0. 0. 0.
      0. 0. 0. 0. 0. 0. 0. 0. 0. 0. 0. 0. 5.89319643e-05 3.97369819e-04
      3.26651440e-04 9.26073699e-05 1.17880962e-04 8.05354211e-04
